435 100
plane -0.20415 0.25166 -0.19497 -0.030821 0.87954 0.8082 -0.52127 0.81112 -0.015366 0.16349 0.1078 -0.71449 -0.36892 -0.34294 0.74451 -0.10267 -0.33868 0.19414 0.07604 -0.37382 -0.092594 0.81167 -0.19533 -0.63783 -0.44701 -0.31895 -0.071668 0.23027 0.073738 0.19889 0.32803 0.16763 0.33148 -0.81547 0.48165 0.064969 -0.3277 0.02832 -0.13605 -0.046454 0.088075 -0.022576 0.59882 0.34083 0.11713 -0.24822 0.28351 -0.12405 0.46496 -0.38525 0.2658 -0.2087 -0.39109 -0.12152 -0.16251 -0.14377 -0.044202 -0.044223 -0.42371 0.91213 0.19801 -0.89853 -0.26022 0.67344 0.7135 -0.1999 -0.17582 -0.056966 0.39504 0.2319 1.1119 0.316 0.0031934 -0.447 -0.018877 0.057541 0.14682 0.13579 0.31813 -0.20032 0.42553 0.083166 -0.41691 -0.17316 0.21087 -0.26012 0.14951 0.53381 -0.80359 0.78908 -0.01476 -0.23787 -0.084456 -0.39905 -0.46043 0.38254 0.41426 0.28679 0.76944 0.18364
stupid 0.50478 -0.084344 -0.28811 0.39931 0.38565 0.78369 -0.37496 0.62073 0.12567 0.57857 0.051825 0.55815 0.021888 -0.54564 0.6678 -0.10838 0.22274 -0.31951 -0.33569 0.083662 -0.34651 -0.50203 0.23262 0.0030969 -0.78274 -0.38627 0.069123 -0.57377 -0.23737 -0.5228 -0.13075 0.010786 0.32692 -0.38787 -0.3949 0.20152 -0.10858 -0.43791 -0.12921 0.38309 -0.47213 -0.52566 -0.59545 0.024733 0.39456 -0.43659 0.41728 -0.032399 0.19377 -0.45119 -0.85551 0.051864 -0.097602 0.49691 0.076902 -0.04277 0.042339 0.29189 -0.43295 -0.0025661 -0.56179 -0.69325 0.055725 -0.010459 0.33761 0.066716 -0.077639 0.13761 0.28195 0.33486 0.55954 1.1061 -0.0449 -0.38396 -0.67175 0.48549 0.027807 -0.067038 0.31808 0.016511 0.28342 0.11079 -0.032506 -0.19215 0.077279 -0.38803 0.23941 0.28899 -0.63733 -0.3161 0.29513 -0.15852 0.28896 -0.0080978 0.20957 0.13361 0.049744 -0.060977 -0.10448 -0.38463
egg -0.3997 -0.36029 -0.27121 -0.59306 -0.030242 -0.15842 -0.62703 -0.4981 -0.24 0.4175 -0.13842 -0.20594 -1.0321 -0.093965 -0.013451 -0.55463 -0.1218 -0.18912 0.43765 -0.40471 -0.84435 -0.19835 0.19023 -0.27739 -1.0024 -0.84252 0.16565 -0.75587 0.94475 -0.50582 -0.084238 0.18789 0.14469 -0.39346 -0.13099 0.23728 -0.22784 -0.12219 -0.19707 0.050495 -0.21959 0.12491 -0.16206 0.25828 0.44779 -0.55141 0.1399 -0.31878 -0.0019795 -0.28584 -0.033674 0.074395 -0.22689 0.54163 0.073812 -0.038154 -0.35687 -0.49862 0.079269 -0.23525 -0.17042 -1.107 -0.16586 -0.46774 -0.11234 0.028343 -0.44574 0.0039825 0.041994 -0.49571 0.38453 0.83311 -0.092265 -0.67315 -0.48142 0.10691 0.096858 0.28616 0.16184 -0.36774 -0.61638 0.25352 0.49117 -0.096031 0.42668 0.0055602 0.101 0.76525 -0.6457 0.079958 0.5586 0.083172 0.8356 -0.16773 -0.23041 -0.2446 -0.25075 -1.2198 -0.044885 -0.32014
year -0.19081 -0.29078 0.064831 -0.21828 0.35639 0.61015 -0.14751 0.17531 -0.093776 0.29221 0.5659 0.030224 -0.34594 -0.16618 -0.28981 -0.20194 0.72643 -0.27385 -0.12152 0.084353 0.19126 0.19598 0.41629 -0.34586 -0.30599 -0.3033 -0.033169 -0.010346 -0.088776 0.25038 -0.087982 -0.041641 -0.038876 0.17328 0.15599 -0.26252 0.01211 0.117 -0.24183 0.73604 -0.16773 0.54427 -0.29462 0.21253 0.21753 -0.056916 0.25695 0.025297 0.43342 -0.024912 0.021372 -0.38661 0.098645 0.048961 -0.41691 -0.020071 -0.29268 -0.36947 -0.26214 0.10431 -0.032348 0.10822 0.49116 0.43285 0.048156 0.1552 0.075985 0.60148 0.094408 -0.071621 0.51911 0.43745 -0.053752 -0.11234 -0.42224 -3.5514E-5 -0.079602 0.57329 -0.029911 -0.095405 0.20608 0.39717 -0.016391 0.44865 -0.30055 0.011654 -0.17982 0.49715 -0.63339 -0.22706 0.031829 0.085381 0.48479 -0.40042 -0.064246 -0.0011102 -0.18233 -0.032827 -0.19181 -0.18258
psychiatry 0.3155 0.0012118 0.54972 -0.33467 0.52655 0.2306 -0.14198 -0.41118 -0.35766 0.23319 0.53359 -0.2202 -0.64458 -0.5743 -0.2983 0.1138 -0.24385 -0.1712 0.18024 0.15444 0.11326 0.4576 0.26131 0.096649 -0.16657 -0.20141 0.25342 -0.17018 -1.0207 -0.48382 -0.14389 -1.4937 0.3641 -0.11301 0.21748 0.37073 0.061873 0.72709 -0.42204 -0.3078 -0.6222 -0.18855 -0.72337 0.51938 -0.11317 -0.068391 0.092585 -0.3861 0.093076 0.12432 -0.36101 0.2043 -0.18162 0.43457 -0.14038 -0.19267 -0.12878 0.035397 -0.012458 0.41956 -0.54081 -0.86963 0.44205 0.016966 0.60826 0.33638 0.0066001 -0.029905 0.45209 -0.1232 -0.017481 0.23164 -0.0038549 -0.57589 -0.07951 1.0863 -0.29623 0.22536 0.34681 0.093069 -0.040544 -0.27329 0.44357 0.14801 0.53596 -0.24664 -0.077532 0.31853 -1.5164 0.031745 -0.25659 -0.1832 0.87069 -0.90521 0.6708 0.52893 -0.55946 0.15847 0.50518 -0.30373
asylum 0.65975 -0.72105 -0.31808 0.13719 0.34745 0.41136 0.70603 -0.10179 0.36622 0.13854 -0.11077 -0.30742 -0.32928 -0.58616 0.5168 0.006497 -0.14294 -0.19075 -0.223 -0.45547 -0.032416 0.79015 -0.13838 -0.54364 -0.59667 -0.43524 0.1701 0.24138 -0.4162 0.57675 -0.07286 -0.36437 0.29177 -0.57954 -0.083255 -0.4359 0.5167 0.488 -0.62771 0.16701 -0.64574 0.34289 -0.15194 0.89615 0.30898 -0.47839 0.095292 0.046015 -0.19693 -0.56199 0.14652 0.44165 0.52083 0.099411 -0.35775 -0.69627 -0.36353 0.050745 -0.11641 0.64337 -0.35178 -0.20412 -0.75992 0.48968 0.7178 0.28603 0.50595 0.89419 0.56733 0.47319 0.97673 0.48389 0.33857 -0.43617 0.44869 -0.1648 0.044191 0.58793 -0.038669 0.65192 -0.02616 0.21741 -0.036627 -0.092936 0.40863 -0.26511 0.054189 0.14667 -0.96079 -0.28849 0.12706 -0.76886 0.76451 -0.81941 0.25183 0.47033 0.47464 -0.027057 0.25447 0.088027
manslaughter 0.18542 -0.22972 0.2804 0.083313 0.3437 0.26022 -0.1363 -0.58707 -0.49807 0.41853 0.45012 0.27219 -0.66104 -0.90548 0.50503 0.50111 0.24825 -0.28613 0.13646 -0.59856 0.31605 0.60913 0.34372 -0.6704 -0.49204 -0.38232 0.067007 0.01291 -0.55524 -0.47648 -0.065763 -0.61045 0.29429 0.60761 0.64649 0.059179 -0.44784 0.058755 -0.0095467 -0.061471 0.21344 -0.12485 -0.16741 -0.075951 0.26941 0.12221 -0.5406 -0.054209 -0.20867 -0.44217 0.14529 0.18255 0.22767 -0.43858 0.025771 -0.22084 0.33354 0.098085 -0.15378 -0.04159 -0.88733 -0.58336 0.054182 -0.16274 0.45803 0.56346 -0.44478 -0.18894 0.52568 -0.32052 1.217 0.50956 -0.048226 -1.523 -0.98178 0.55479 -0.16306 0.70543 0.036788 0.068531 -0.0058821 -0.1659 -0.46883 -0.2006 0.17288 0.097807 -0.39504 0.16385 -1.0031 0.56415 0.20103 -0.060808 0.76394 -0.70445 0.028301 0.42032 -0.29525 -0.068721 0.072155 0.5528
music -0.19419 -0.39089 0.24178 0.072305 0.26763 -0.15811 -0.56994 0.41729 -0.58576 0.15039 -0.072128 0.22702 -0.70063 0.29237 0.15134 -0.52724 -0.03209 -0.22632 0.18289 0.22635 -0.041894 0.40843 0.12639 -0.055326 -0.15599 -0.18133 -0.26013 -0.038341 -0.31955 -0.19216 -0.21777 -0.053371 0.90033 0.17867 -0.78044 0.18237 -0.60661 0.093741 0.3038 -0.55812 -0.52671 0.18379 -0.36197 0.52298 0.14251 -0.060066 0.57158 0.025673 0.25081 0.32576 -0.025798 -0.55658 0.3894 0.022476 0.020336 0.31781 -0.21049 -0.38413 0.24225 0.70083 -0.047039 0.035038 -0.25768 0.17859 0.44144 -0.19609 -0.016976 -0.061274 -0.12369 -0.45049 1.4054 0.82018 0.24684 -0.0946 0.004592 0.87919 0.26706 0.0039959 0.37265 0.57762 -0.47277 0.14838 -0.35318 0.031771 0.29655 -0.3458 -0.21061 0.3984 -0.88088 0.17937 -0.32196 -0.22387 0.44141 -0.25988 0.55319 0.51766 -0.33303 -0.13607 -0.50313 -0.26775
record -0.054052 -0.3291 0.24874 0.19099 0.096289 0.48078 -0.61517 -0.050149 0.1558 -0.080412 0.26099 0.4767 0.050146 0.079138 -0.19397 -0.026516 0.46435 -0.49552 -0.68076 -0.10561 0.20886 0.18824 0.40614 -0.50734 -0.02372 -0.61798 -0.059925 0.20968 0.21952 0.39766 -0.40229 0.05752 0.13712 -0.24432 0.24891 0.050207 0.10287 -0.032839 -0.14086 0.61289 -0.19224 0.53751 -0.1584 0.29293 -0.012881 -0.40614 0.67289 0.20644 0.37073 -0.023414 0.12701 -0.13858 0.058411 -0.036492 -0.11607 0.46174 -0.1393 -0.40534 0.084504 0.24223 0.28259 -0.47309 -0.053374 0.024209 0.50985 -0.51818 -0.046702 0.24809 -0.069163 -0.20379 0.79343 0.35097 -0.038223 -0.29688 -1.016 0.26744 0.58417 0.022707 -0.45207 0.073793 -0.34927 0.17188 -0.033698 0.28624 0.14244 -0.23937 0.03533 0.3519 -0.30877 0.048173 -0.36791 -0.094003 0.66377 -0.50797 -0.24605 0.33075 0.050515 0.45303 -0.44632 -0.12026
energy -0.22172 -0.18945 0.26522 -0.07079 0.23883 -0.3088 -0.34978 0.26666 -0.01962 0.5149 0.01449 0.16038 -0.36067 -0.27546 0.3492 -0.0079005 -0.20038 0.18574 -0.39685 0.23722 0.37713 0.098306 -0.4663 0.18104 -0.79437 -0.6246 0.0065093 0.22115 -0.35966 -0.59496 -0.64902 -0.092008 0.67154 -0.33866 0.54752 -0.11334 -0.0049967 0.68394 0.10537 0.12919 -0.57025 0.23468 -0.11464 0.11877 0.39503 -0.61658 0.37717 -0.098896 0.57076 0.067606 -0.31342 -0.12841 -0.16426 -0.67081 -0.26888 0.43539 -0.015037 -0.18487 0.087972 -0.033247 -0.29645 -0.13367 -0.09716 0.36018 0.3359 -0.02169 0.087927 0.39795 -0.46589 -0.032996 0.62145 0.68531 0.42632 0.15514 -0.32703 0.30286 0.58589 0.30978 -0.4563 -0.23163 -0.28171 0.61474 0.66997 0.27275 0.024155 -0.29055 -0.4753 1.1615 -0.53276 0.33749 0.7821 0.25941 0.09671 -0.48487 0.22956 -0.16413 -0.31443 -0.018957 0.25249 -0.27659
announcement -0.54262 0.03026 0.16897 0.014847 0.58042 0.40045 0.14063 0.17422 -0.61016 -0.4614 0.43183 0.087591 -0.14974 0.29806 0.047426 0.08114 0.060121 -0.0064484 0.17849 -0.47137 0.22575 -0.13691 0.20293 -0.34482 -0.38504 -0.95946 -0.067384 -0.12517 0.014885 0.22268 -0.14784 0.072692 0.19235 0.072832 -0.22249 -0.17744 -0.56989 -0.061133 0.093759 0.49159 -0.17492 0.12098 -0.25448 0.040017 0.24658 -0.02661 0.44829 0.052566 0.49809 -0.29023 -0.31261 -0.19506 -0.57244 0.031854 -0.46502 0.3362 -0.10631 0.31602 -0.41659 0.28987 0.10246 0.082057 -0.12522 0.25513 -0.0042984 0.016893 -0.077749 0.80332 0.25905 0.59507 0.66226 0.39363 0.53472 -0.64532 -0.12582 0.12485 -0.38894 0.54395 -0.27506 -0.14375 0.16224 0.029073 0.32258 -0.046303 -0.02738 -0.17787 -0.28334 0.4518 -0.49273 0.27918 0.048109 -0.17676 0.26306 -0.92264 -0.14098 -0.10605 0.10006 0.042001 -0.29165 -0.68139
mile -0.48058 -0.15435 -0.36863 0.096052 -0.10128 1.1722 -0.11005 0.15398 0.053691 0.29527 0.44769 0.09741 0.17261 -0.03573 0.2402 -0.17671 0.20735 0.23874 0.066185 -0.35654 -0.45324 -0.090197 -0.0047526 -0.67453 -0.27075 -0.27144 0.34199 0.24069 0.37867 -0.14584 0.13251 -0.17795 0.20939 0.48167 -0.084166 -0.45389 -0.37878 0.17162 -0.69041 0.68134 -0.61412 0.46573 0.2347 0.44152 0.46573 -0.69679 0.42629 0.16967 0.41759 -0.11 0.11399 0.18946 0.2634 -0.58738 -0.28119 -0.17211 -0.18436 -0.36172 -0.13811 0.065855 0.35324 -0.63766 0.26841 -0.0044997 -0.096803 0.11454 -0.38804 -0.56502 -0.19756 -0.39486 0.9272 0.69121 0.033375 -0.37411 0.17095 0.093979 -0.14799 0.028253 0.08029 -0.39663 -0.0501 0.23162 -0.14209 -0.029169 -0.02759 0.38319 -0.45905 0.29997 -0.62073 0.32361 0.34547 -0.2686 0.041529 -0.86555 0.28918 -0.0015487 0.52958 0.45426 0.37831 -0.30754
airport -0.098134 -0.33508 0.0043948 0.060363 0.6875 0.52261 0.042373 0.27187 -0.13312 0.47566 0.41461 -0.51406 -0.1206 -0.17715 0.53914 0.17648 -0.052082 0.69121 0.20787 0.29837 -0.19266 0.87846 -0.19684 -0.603 -0.41262 -0.13405 0.15249 -0.1557 -0.3027 0.51963 0.11668 0.12103 0.38752 -0.4666 -0.14196 -0.40987 -0.51614 0.25279 0.10142 0.3259 -0.14028 0.26619 0.50648 0.24212 0.57824 -0.12206 -0.15377 0.057817 0.3525 -0.18776 0.16109 -0.25585 -0.1567 -0.073962 -0.71637 -0.24707 -0.06824 -0.07282 -0.62981 0.71902 0.20689 -0.90475 -0.72765 0.89983 0.62042 -0.073757 0.19516 -0.27802 0.56281 0.044853 1.1465 0.52748 -0.23865 -0.27969 0.39582 0.012844 -0.031618 0.27928 0.18273 -0.29958 0.25181 -0.16482 -0.36491 -0.48671 0.08564 -0.12431 0.10565 0.66335 -0.8561 0.67559 0.21829 0.25871 0.20779 -0.36166 -0.2603 0.060511 0.36721 0.29191 0.47129 0.067231
population 0.24897 -0.30618 0.16383 -0.19605 -0.012306 0.161 0.086938 0.40894 -0.11823 0.46739 -0.09754 0.14075 -0.14864 -0.47477 -0.27879 -0.39501 0.55519 -0.0047825 0.44905 -0.20643 -0.42223 0.5397 -0.13652 -0.12633 -0.46413 -0.25901 -0.015289 -0.092469 -0.1051 -0.15121 -0.26628 -0.3666 0.14589 -0.18657 -0.029964 -0.29959 -0.33639 0.62397 -0.72136 0.56188 -0.66611 0.33173 -0.50785 0.60838 0.44342 -0.72782 0.38591 -0.059329 0.30567 -0.47401 0.072358 -0.19654 0.17123 -0.34899 -0.35413 -0.43698 -0.87749 -0.10743 -0.59195 0.34777 -0.2932 -0.65778 -0.234 0.20165 0.59441 0.19579 -0.20767 0.1423 -0.11373 0.12186 0.074365 0.10179 -0.17823 -0.76113 0.16255 0.01579 0.17254 0.27206 -0.19653 0.32328 0.16901 0.57526 0.32285 0.45002 0.34887 0.39835 0.28997 0.58897 -0.66827 -0.35674 -0.068136 -0.53864 0.3185 -0.83073 -0.074646 -0.35117 0.11817 -0.16686 -0.1867 0.5987
planning -0.088045 -0.048551 -0.053475 0.35493 -0.07143 0.29606 0.1142 -0.08762 -0.22912 0.0235 0.38068 -0.2068 -0.43925 -0.05482 0.35857 -0.042009 0.10994 0.053682 0.24183 0.054488 0.29022 0.59073 0.33587 -0.34648 -0.34992 -0.62928 -0.14572 -0.069433 -0.40943 0.086219 -0.16995 -0.059898 0.087467 -0.064081 0.14582 -0.3897 -0.48456 0.20581 0.10282 0.090195 -0.23179 0.17489 -0.21766 0.2005 0.85697 -0.14844 0.031675 -0.3583 0.42154 -0.55056 -0.28673 -0.28047 -0.16275 -0.19019 -0.53328 -0.0061203 0.038254 0.087774 -0.52839 0.24949 -0.2852 -0.16629 0.26537 0.2731 0.26738 0.35222 0.13834 0.52037 0.019546 0.31885 0.30148 0.5612 -0.0080556 0.11087 -0.086894 0.44705 0.15721 0.22349 -0.10849 -0.3171 0.12901 0.26894 0.30165 -0.17259 0.27327 -0.15497 0.031845 0.4082 -0.38082 0.12766 -0.20881 0.15476 0.16821 -0.68964 0.51804 0.46911 -0.090405 -0.20112 -0.0045304 -0.19461
canyon -0.45084 -0.43265 -0.46967 0.11831 -0.033204 0.5965 -0.39293 0.13863 0.63046 0.12062 0.20268 0.14686 -0.48795 -0.61769 0.2667 -0.34834 0.035961 0.40912 -0.23196 -0.26341 -0.76219 0.18046 -0.2536 -0.6317 0.4025 0.064724 0.20141 -0.23139 0.095122 0.22032 -0.14226 -0.42319 0.66982 -0.21586 -0.012406 -0.067506 -0.77178 0.44364 -0.17138 -0.088245 -0.19046 0.63985 0.26082 0.9431 0.43176 -0.25873 1.2153 -0.053386 0.5866 0.020321 -0.25533 -0.25728 0.082779 -0.18666 0.3767 -0.10125 -0.27115 -0.43647 -0.076421 -0.064561 0.27061 -0.70466 -0.16065 -0.21815 -0.19954 0.096754 -0.24626 -0.19745 0.15169 -0.52253 0.83101 0.45519 0.51626 -0.56484 -0.42017 0.29225 0.55572 0.37337 -0.035533 -0.57635 -4.9394E-4 0.034076 -0.14293 -0.23143 0.37187 0.66348 -0.52461 0.50987 -0.9349 0.64304 0.22547 -0.10811 -0.37171 -0.28944 0.44842 0.37218 0.27202 0.48354 0.23726 0.032808
delay -0.34449 0.4139 -0.014818 0.062876 0.30301 -0.038327 0.29079 0.11262 -0.36172 0.39643 0.073138 0.16919 -0.25142 -0.014801 0.65011 -0.0060492 -0.06144 -0.32959 0.19674 -0.25488 0.17553 0.055504 -0.21372 -0.69944 -0.48344 -0.86118 0.41879 0.57425 -0.45458 0.10729 0.089194 0.12308 0.1386 -0.14474 0.43214 -0.3686 -0.45059 0.28629 -0.27809 0.5553 -0.23714 0.41722 -0.167 -0.12655 0.13208 -0.046991 -0.047826 -0.1656 0.14598 -0.71651 -0.18677 -0.085474 -0.32984 0.098806 -0.29472 0.31376 -0.099526 0.0059907 -0.13559 -0.17247 0.042504 -0.40249 0.049459 0.26132 -0.13744 -0.17185 -0.013896 0.5204 0.45501 0.37634 0.15606 0.26036 0.084967 -0.27149 -0.46745 0.34634 0.1592 0.48044 0.15438 0.086974 0.29293 0.44486 -0.53093 -0.16876 0.24151 -0.32874 0.50137 0.4756 -0.71493 0.43711 -0.043371 0.039543 0.27442 -0.83082 0.3962 0.42452 0.0022019 -0.098066 -0.1231 -0.18828
size -0.27425 0.21273 -0.022411 -0.38177 0.30365 0.25894 -0.012066 0.40587 0.082983 0.32591 0.36151 0.22277 0.22674 -0.19251 -0.14647 -0.1863 -0.20468 0.27917 0.30053 -0.24392 -0.18902 0.04406 -0.25125 -0.26544 -0.48641 -0.19928 -0.069081 -0.13671 0.12996 -0.096434 -0.033628 0.34409 0.14937 -0.016619 0.32977 -0.089969 -0.53292 -0.021246 -0.016302 0.47065 -0.22023 0.49087 -0.56408 0.34086 0.16795 -0.24995 0.42493 0.053195 0.39773 0.022221 0.096895 0.070034 -0.24304 -0.42568 -0.053078 -0.1291 -0.5755 -0.012154 -0.57238 0.21272 -0.006353 -1.1296 0.13456 0.090499 0.21817 0.078204 -0.6004 0.42386 0.06056 -0.37066 0.4126 0.50207 0.15793 -0.084587 -0.10663 0.19775 0.29089 0.038237 -0.22272 -0.55443 -0.20327 0.34597 0.32408 0.072187 0.14391 -0.048805 0.042727 0.47997 -0.64585 -0.25449 -0.292 0.14467 0.31882 -0.26981 0.066752 -0.14463 -0.046852 -0.75576 -0.058545 0.45706
peace 0.51723 -0.81896 0.62185 0.25894 0.2096 -0.20095 -0.15285 -0.43667 -0.053944 -0.028745 0.108 0.12845 -0.44311 -0.41656 -0.16695 -0.18986 0.33317 0.063264 -0.015022 -0.15347 -0.049493 0.55141 0.30773 -0.33536 0.11444 -0.47942 0.30163 -0.054304 -0.29215 0.21384 0.071575 -0.31422 0.33639 -0.9871 0.030226 0.011291 -0.27085 -0.33897 -0.28867 0.17561 -0.27287 -0.089733 -0.40174 0.30775 0.61435 -0.13975 0.73653 0.67886 0.5269 -0.78775 -0.77971 -0.20162 0.13473 -0.58757 0.3425 0.087862 -0.23233 0.26217 -0.49773 0.7246 -0.32074 -0.18565 -0.48765 -0.044037 -0.14718 0.18901 -0.13668 -0.1077 -0.02419 0.54911 0.3962 1.1203 0.37267 0.11999 0.1572 0.56273 -0.2524 0.73118 -0.46657 -0.14075 -0.11811 0.24368 -0.72309 0.091824 0.14062 0.077129 0.024975 0.64867 -1.2191 0.64596 0.70355 -0.57574 -0.023908 -0.66075 -0.83991 0.75044 -0.23487 -0.38969 0.30903 -0.24322
science 0.38643 0.50617 0.26296 -0.16697 0.69035 0.20144 -0.13703 -0.16295 -0.29673 -0.021306 -0.071218 0.0081439 -0.55536 -0.39966 0.080408 0.23617 -0.23858 0.2555 -0.05113 0.11112 -0.33316 0.065834 -0.016835 -0.061938 -0.26772 0.1572 0.37025 -0.43864 -0.35269 -0.65516 -0.31062 -0.56066 0.27281 -0.35257 0.055425 0.52053 -0.080679 0.04398 -0.19003 -0.079883 -0.69156 0.26912 -0.29832 0.66598 0.17721 -0.84592 0.43214 -0.43944 0.44925 -0.21101 -0.45197 -0.2943 -0.054347 0.31205 -0.025925 0.23928 -0.12706 0.047608 0.088185 0.65298 -0.042033 -0.17465 0.87976 0.1615 0.47241 0.26528 -0.25193 0.4253 -0.089993 -0.12946 0.41027 0.59392 0.21482 -0.30755 -0.10115 0.72989 -0.33445 0.23626 -0.17806 -0.15543 -0.053679 0.37026 0.27428 0.73147 0.085992 -0.41825 0.59277 0.67182 -0.69587 0.51211 0.46152 0.0051169 0.7728 -0.13175 0.46917 0.35117 0.037208 -0.056139 0.12367 -0.15634
dawn -0.648 -0.51099 -0.065337 0.17448 -0.0075726 0.40705 -0.51456 -0.020794 0.049442 -0.086977 0.25634 -0.46942 -0.36885 -0.22065 0.36105 -0.0098587 0.19149 0.01836 0.1694 0.0713 -0.6712 0.22156 0.090833 -0.96838 -0.40835 -0.50079 0.23785 0.28439 -0.16907 -0.2775 0.071175 0.012509 0.65636 -0.26589 0.030112 -0.13746 -0.28943 -0.14504 -0.48646 0.5852 -0.52457 0.39841 -0.36531 0.43433 0.40018 -0.27463 0.33432 -0.033587 0.34359 0.13686 -0.11904 -0.040797 0.076451 -0.014595 0.050909 -0.56312 0.069237 0.10792 -0.79744 0.39704 0.042226 -0.31884 -0.20737 0.15685 0.18879 -0.014208 -0.6662 -0.19417 0.48427 0.11428 0.54671 0.6234 0.4512 -0.1665 0.063835 0.045494 0.04848 0.60291 0.21074 -0.067785 0.47098 0.030101 -0.18934 -0.079816 0.43357 0.02756 -0.3197 -0.052572 -0.33996 0.55965 0.60002 -0.11204 0.040394 -0.22372 0.078814 -0.14398 0.04413 0.19949 -0.1876 -0.54651
brother 0.20652 -0.35979 0.46884 0.16706 0.44973 0.63059 -0.67749 0.18468 0.41473 0.10153 -0.064456 -0.25853 -0.54357 0.07665 0.12223 -0.36147 -0.42026 -0.57801 0.16665 -0.46431 0.47232 0.64462 0.04918 -0.55146 -0.47037 -0.53676 -0.15574 0.051179 -0.44594 -0.43735 0.25489 -0.54093 -0.45128 0.11668 0.036503 0.051829 -0.42697 0.0779 -0.60509 -0.21446 -0.19584 -0.28282 -0.22222 -0.5334 -0.11715 -0.083145 -0.095591 0.40163 -0.012967 -0.29811 -0.085374 -0.15677 0.39961 -0.40323 0.1818 0.04499 0.67148 -0.069687 -0.87974 -0.26221 0.042788 -0.26806 -0.0098133 0.3995 0.33731 0.022795 -0.64138 0.44147 0.1139 0.047361 0.95143 0.53783 0.053323 -0.58438 0.0056886 0.11759 0.28407 0.37041 0.27273 -0.078171 -0.10034 0.12863 -0.24824 -0.082719 0.54172 -0.33753 -0.33562 0.34318 -0.85186 0.23829 -0.024755 -0.33735 0.28476 -0.14795 0.11702 0.24684 0.26368 0.35956 0.084694 0.019892
wine 0.013002 -0.84305 0.087385 -0.43779 0.28767 -0.17375 -0.53166 -0.13139 0.17557 0.66105 0.21908 -0.29189 -0.57741 0.39518 0.46679 -0.82374 0.08374 0.1808 -0.056713 -0.13146 -0.53416 0.2116 -0.070591 0.31938 -0.5116 -0.18483 -0.3601 -0.5027 -0.46332 0.31838 -0.57537 -0.12143 0.39763 -0.68167 -0.029792 0.011906 -0.49078 0.11979 -0.1368 -0.01418 -0.36978 0.25137 0.15996 -0.060129 0.14107 0.054413 0.74912 -0.040439 0.62996 -0.020445 0.11617 -0.64087 0.176 0.3487 0.15791 -0.49093 -0.14923 -0.30106 0.069475 -0.35789 0.011785 -0.93045 -0.44507 -0.42382 0.016114 0.45108 -0.309 -0.46209 0.14869 -0.87152 1.2348 0.62456 0.27385 -0.44343 -0.46764 -0.32893 0.012396 0.39672 -0.090882 0.20807 -0.45762 -0.08119 0.38771 0.11232 0.16207 -0.095354 -0.018737 0.58039 -0.84907 0.35643 0.035596 0.52179 0.38018 -0.2478 0.2131 -0.16675 -0.75345 0.044218 0.23595 -0.03286
object -0.066249 -0.01508 -0.063229 0.029559 0.29336 0.56612 -0.033119 0.086825 0.024638 0.050223 0.011655 0.30103 -0.44481 -0.19187 0.22558 0.10149 -0.33219 0.01094 0.38234 -0.36575 -0.41405 0.26753 0.079239 -0.17693 -0.49394 -0.11223 0.37747 0.098896 -0.15432 -0.095234 -0.22117 0.19583 0.25627 -0.33127 -0.25761 0.37104 -0.2317 -0.031989 0.14354 -0.1605 -0.11229 0.45569 -0.10273 0.35607 0.32453 -0.30841 0.87909 0.14594 0.12461 -0.31848 -0.055648 0.27502 -0.1099 0.18784 0.031118 -0.022994 -0.029246 -0.13884 -0.37085 0.24607 -0.41307 -0.69555 0.11454 -0.15147 0.10613 -0.14859 -0.17714 0.35672 0.29896 -0.0095017 0.60035 0.70222 0.519 -0.56671 -0.17979 0.46263 0.20403 -0.20399 0.082817 -0.2138 -0.032296 0.54312 0.0060106 -0.02812 -0.23001 -0.070258 -0.11527 0.53268 -0.37689 0.089398 -0.025781 -0.41686 -0.16756 -0.32231 0.37769 0.30661 -0.080092 -0.38866 0.21793 -0.15568
attitude 0.53658 0.35725 0.050164 0.13818 0.50738 0.33209 -0.046761 0.32652 0.097201 0.10335 0.067567 0.10713 -0.064121 -0.34683 -0.049654 -0.39096 -0.17871 -0.46988 0.12845 0.12659 -0.15056 -0.071254 0.39446 0.19383 -0.74649 -0.51905 0.2476 -0.34725 -0.36898 0.0025347 -0.68036 -0.23099 0.1967 -0.69399 -0.035451 0.03795 -0.28823 0.050863 0.21362 0.31627 -0.28061 -0.079936 -0.31812 0.38498 -0.16022 -0.011173 0.31464 0.17514 0.27575 0.064473 -0.26684 0.19498 -0.35035 -0.13932 -0.55509 -0.36888 0.089639 -0.045674 -0.22245 0.069234 -0.42538 -0.32719 -0.40618 0.20613 0.41072 0.2021 -0.50773 0.20585 -0.14355 0.20535 0.60028 0.95408 0.23832 -0.16881 0.018334 0.43331 -0.19994 0.20424 -0.36268 -0.082135 0.032118 0.25275 -0.37228 -0.022781 0.15848 0.034541 0.037771 0.30038 -0.57837 -0.39755 8.6364E-4 -0.37973 0.25967 -0.36328 0.61174 0.53885 0.099737 -0.065223 0.1209 -0.14233
treatment -0.027377 -0.15037 -0.2932 0.12289 0.23471 0.25712 0.22027 -0.13159 0.1323 0.57378 0.088617 -0.033795 -0.33911 -0.36637 0.15125 0.19181 -0.28149 -0.50196 0.61986 -0.11351 0.28027 0.60473 0.1444 0.22146 -0.53018 -0.86094 0.088754 -0.14144 -0.42525 -0.060791 -0.2753 -0.46746 0.30526 -0.18313 0.37506 -0.031344 -0.086159 0.23097 -0.33208 0.6252 -0.39238 -0.35991 -0.41504 0.51653 0.39103 -0.29742 0.24986 -0.12134 0.17107 -0.037687 -0.034313 0.39965 0.23411 0.12364 -0.42789 0.1736 -0.47664 -0.004669 0.50923 0.081127 -0.098367 -0.77826 -0.45499 0.24652 -0.079059 0.1867 0.28361 0.22548 0.19853 0.26933 0.053976 -0.054192 -0.0032015 -0.23368 -0.29134 0.40074 -0.44721 0.84146 0.18092 0.029354 -0.083761 -0.33339 0.22113 -0.04835 0.22168 0.23194 -0.29583 0.42081 -0.7706 0.030446 0.052484 0.28495 0.88655 -1.1454 0.21898 0.16403 -0.075455 -0.098563 0.70118 -0.21857
flight -0.11077 0.40501 0.074223 -0.14745 0.82293 0.41065 -0.49643 0.19232 -0.12791 0.067459 0.073509 -0.7812 -0.1607 -0.33221 0.5466 -0.099981 0.14636 0.57621 0.161 0.047968 -0.21479 0.54569 0.15059 -0.66989 -0.7761 -0.4136 0.27817 -0.21493 -0.20135 0.19934 0.43355 0.28932 0.34354 -0.43006 0.28876 0.077768 -0.35842 0.010247 -0.090742 0.29207 0.38974 -0.071577 0.57222 0.23661 0.11775 -0.37882 0.034301 -0.37008 0.7214 -0.22867 0.30649 -0.11298 -0.36063 -0.055654 -0.20657 -0.0545 -0.16688 -0.095775 -0.33116 0.7115 0.31044 -0.78273 -0.15219 0.77573 0.58373 -0.38406 -0.059291 -0.18718 0.63657 0.10928 0.97665 0.42862 -0.20617 -0.26857 0.23188 0.14752 -0.15149 0.29019 0.2234 -0.021564 0.2205 0.18642 -0.46658 -0.45305 0.17555 -0.41568 0.22427 0.85074 -1.0021 0.52338 -0.28926 0.12822 0.20234 -0.44451 -0.11651 0.38159 0.59218 0.10312 0.66243 0.33923
forest 0.33345 -0.99771 -0.14689 -0.073389 -0.24181 0.22349 -0.099876 0.098768 0.28675 -0.10369 -0.026017 0.021898 -0.60476 -0.73581 0.71091 0.12121 0.20835 0.029128 -0.15593 -0.28809 -0.69263 0.071221 -0.25921 -0.37315 -0.26313 -0.048165 0.056919 -0.52415 0.28531 -0.014123 -0.28964 -0.3168 0.64077 -0.22347 -0.04776 -0.49151 -0.35927 0.74207 0.18875 -0.12593 -0.13397 0.33648 -0.35671 0.95665 0.72147 -0.62754 0.76084 -0.1351 0.68793 -0.37117 -0.32342 -0.54555 0.063875 -0.34058 0.34552 -0.4215 -0.34942 -0.17692 -0.32248 0.28858 0.38537 -0.58812 0.12578 0.18016 0.3332 0.58053 -0.21595 -0.26422 -0.29637 -0.16169 0.76476 0.253 0.88479 -0.38931 0.0032563 0.34828 0.75187 0.1461 0.021779 -0.31428 0.21553 0.4566 0.083193 0.044115 0.2811 0.38824 -0.38768 0.45755 -0.61597 0.28172 0.41229 -0.04216 0.10778 -0.19393 0.042219 0.23656 -0.1091 0.093629 0.28858 0.50066
abuse 0.11019 0.026819 0.47511 0.71937 0.1318 0.19258 -0.36426 0.26499 0.046618 0.74843 0.38181 0.17375 -0.46391 -0.65843 -0.050977 0.21904 0.018706 -0.57893 -0.011588 -0.35055 0.071268 0.81578 -0.084785 0.37412 -0.48669 -0.57627 0.029872 -0.31717 -1.0799 -0.14023 -0.52719 -0.59143 0.11617 -0.60291 0.64867 0.11311 -0.15319 0.19897 8.8511E-4 0.31233 -0.53292 0.072435 -0.34291 1.0114 0.19965 -0.072471 0.055656 -0.045744 0.1089 -0.35624 -0.11567 0.32398 -0.41837 -0.12049 -0.054571 -0.34678 0.24381 -0.35819 0.23009 -0.292 -0.43859 -0.26231 0.048499 0.0090127 0.44506 0.074312 -0.13646 0.36347 0.75958 0.1267 0.65856 0.022477 0.1554 -0.82363 0.0086138 0.23103 -0.1883 0.40181 0.12046 0.26797 -0.42038 0.13937 0.21797 -0.32031 0.19696 -0.042137 -0.6922 -0.093685 -0.90148 -0.27692 -0.16599 -0.45588 0.63407 -0.72206 -0.13069 0.56153 -0.012589 -0.27156 -0.34037 -0.19469
criterion -0.016011 0.062397 -0.039227 0.017425 0.88121 0.054284 0.36919 -0.24699 0.10805 0.12111 0.25808 -0.13155 -0.068412 -0.05265 0.022421 -0.20261 -0.18773 0.0055422 0.13898 -0.082391 0.2143 0.13912 0.30208 0.026106 -0.30458 -0.11337 0.36662 -0.37832 -0.031599 0.33657 -0.29056 -0.15182 0.059187 0.030965 -0.045802 0.36856 -0.26022 0.3139 -0.12562 0.017146 -0.62111 0.17697 -0.75214 0.28385 0.094867 -0.31678 0.4056 -0.16504 0.21253 -0.36999 -0.30801 0.23725 0.32999 -0.085228 -0.29088 0.45158 0.18828 0.076578 -0.26034 0.14613 0.16212 -0.66271 0.36969 0.092569 0.40155 0.32087 0.16945 0.59267 0.29817 -0.16422 0.29178 0.69556 0.057398 -0.2468 -0.75277 0.43514 -0.29849 0.016609 -0.32012 0.1454 0.1091 0.26339 -0.092055 0.046875 0.24593 0.18126 0.055883 0.73464 -0.57378 -0.26995 -0.15816 0.024257 0.47138 -0.68423 0.22111 0.12591 -0.035628 -0.51364 0.098671 0.056249
sea 0.46633 -0.5895 -0.40642 -0.57513 -0.047508 0.26715 -0.21018 0.10761 0.22667 0.70648 -0.18082 -0.18386 -0.42943 -0.13037 0.17751 0.36708 0.71063 0.35019 -0.002058 -0.89055 -0.67373 0.28084 -0.28675 -0.12705 -0.27195 -0.53968 -0.22725 -0.31375 0.042198 -0.34449 0.012341 -0.16601 0.60655 -0.46469 0.3064 0.044757 -0.26075 0.24414 -0.21501 -0.001145 -0.24144 0.42657 0.23359 0.96332 0.037018 -0.33478 0.82992 0.11536 0.95677 0.018276 0.2819 -0.17826 -0.029027 -0.10618 -0.13833 0.027277 -0.67267 -0.14198 -0.21495 0.27264 -0.24728 -0.53972 -0.097342 -0.42231 0.52274 -0.19256 -0.35791 -0.18667 0.02767 -0.010971 0.74856 0.80417 0.76275 0.20443 -0.15116 0.19685 0.79741 0.72622 -0.052386 -0.69396 0.21532 0.24804 -0.29666 0.11725 0.17701 0.19852 -0.16557 0.45012 -0.58688 0.48721 -0.0068064 0.544 0.18134 -0.22418 -0.090889 0.3798 0.35846 -0.087136 0.18773 -9.5687E-4
dollar -0.21472 -1.2831 -0.38333 -0.42245 0.47784 0.010956 -0.94246 -0.11105 0.0635 0.038451 -0.24342 0.49047 -0.41813 -0.59376 -0.4228 -0.23958 0.11816 -0.093033 -0.5243 -0.45894 -0.12737 -0.35253 0.17618 0.37515 -0.18537 -0.945 0.10938 -0.18144 -0.12663 -0.058563 0.034253 0.63547 0.35378 -0.33557 0.56815 -0.38726 0.28243 0.062116 -0.098123 1.0019 -0.095194 0.19235 -0.70311 -0.42529 -0.20287 0.16336 0.16523 -0.13045 0.36094 0.1058 -0.50183 -0.12593 -0.34441 -0.29185 -0.56659 0.076608 -0.60683 0.159 -0.26777 0.69266 0.010701 -0.45011 -0.24944 0.46324 0.63817 -0.49106 -0.025353 0.73426 0.01691 -0.097052 0.78266 0.5663 -0.096788 -0.86176 -0.26463 0.025112 0.79312 0.48466 -0.43912 -0.42316 0.13917 0.23698 0.35768 -0.010607 0.0068438 -0.69636 0.13804 0.28025 -0.79694 0.18746 -0.049076 -0.16031 0.16475 -0.61023 0.68465 0.014472 0.33635 0.30956 0.22932 0.015168
example -0.047743 0.015706 -0.14437 -0.065883 0.1586 0.16716 -0.21792 0.030115 0.34798 0.17088 0.1749 0.024787 0.022663 -0.024309 -0.13473 0.071907 -0.15465 0.028182 0.15934 0.0233 0.1891 0.22381 0.046808 0.041355 -0.26169 -0.36367 0.18872 -0.10917 -0.0014359 0.082481 -0.50531 -0.0058184 0.37327 -0.28055 0.023394 0.032139 -0.14931 0.2113 -0.060408 0.15777 -0.38357 0.15336 -0.38028 0.11854 0.16499 -0.31002 0.52716 -0.049264 0.34204 -0.3025 -0.20362 -0.18574 0.061014 0.17018 -0.35751 0.1106 -0.2932 -0.42654 -0.6213 -0.16106 -0.23049 -0.48899 0.056972 0.3292 0.12726 0.26634 -0.17618 0.31878 -0.027401 -0.017251 0.35893 0.55717 0.068809 -0.31688 -0.37747 0.15933 -0.27315 0.1827 0.23182 -0.075998 0.039098 0.18089 0.0062688 0.099713 -0.06968 -0.30546 0.0099855 0.31848 -0.72714 -0.25568 -0.1235 -0.22212 0.29949 -0.38621 0.15772 -0.011674 -0.021042 -0.076522 0.054893 0.14849
journal 0.35742 0.095104 0.3828 -0.57675 0.71007 0.27307 -0.27078 -0.035953 -0.19776 -0.54405 0.64873 -0.12732 -0.84308 -0.025148 0.30659 -0.086686 0.01213 0.37503 0.49867 -0.53206 -0.23535 -0.13589 0.19193 -0.088408 -0.53395 -0.46323 0.48491 -0.1932 -0.17613 -0.0098764 -0.027633 -0.79627 0.4493 0.36134 0.13533 0.523 -0.0045793 0.16404 -0.6679 -0.32569 -0.79079 -0.015722 -0.39656 0.75228 -0.45973 -0.71744 0.28066 -0.020604 0.43299 0.26546 -0.39187 -0.011187 -0.2551 0.6578 -0.2173 0.37549 -1.2638 0.087128 -0.19094 0.069782 -0.26995 -0.55189 0.37211 -0.53196 0.56123 0.25652 -0.17721 0.35874 0.18706 -0.07116 -0.023514 -0.16549 0.17668 -0.58343 -0.21291 0.93614 -0.47965 0.13869 0.060457 -0.47329 0.15876 0.71351 0.51982 -0.32587 0.23828 -0.1747 0.2283 0.26616 -1.3143 -0.038103 0.37754 0.27163 1.1035 -0.58183 -0.034459 0.16292 -0.40835 0.6753 0.51486 0.17517
laundering -0.30724 -0.59225 -0.010662 0.58228 -0.10133 0.4218 -0.2129 -0.56373 0.073575 1.0044 0.59135 0.54949 -0.89767 -0.67529 0.30039 0.49309 -0.4181 0.19371 -0.41825 -0.39335 -0.12768 0.38455 -0.35619 0.025035 -0.41374 -0.66193 0.036679 -0.42997 -0.83474 0.11456 -0.064949 -0.26024 -0.15578 0.2373 0.4131 -0.66795 -0.25296 -0.22486 -0.21157 0.36063 -0.58345 -0.15089 -0.19065 -0.31564 0.42224 -0.042288 -0.077049 -0.15689 0.038063 -0.3197 -0.19017 0.021955 0.02402 -0.33962 -0.17344 0.019379 0.3157 -0.48494 -0.6582 0.29493 -0.31679 -0.027235 -0.48201 0.1041 1.0241 0.36145 0.10647 0.62865 0.88816 -0.10574 0.8363 0.27048 -0.24825 -0.36393 -0.57389 0.58273 -0.039204 0.40345 -0.46606 -0.11176 -0.13326 0.31628 -0.01905 -0.41928 -0.2133 -0.62547 -0.2099 -0.12341 -0.98639 0.3806 0.15391 -0.2528 0.51548 -0.12839 -0.24861 0.21506 -0.32964 0.20155 0.16431 0.52548
hotel -0.08446 -0.85928 0.18589 -0.11534 -0.10494 0.18671 -0.28148 -0.26241 0.66143 0.28687 0.4485 -0.7495 0.21803 -0.080917 0.3469 -0.10558 0.355 0.25295 -0.099029 -0.07381 -0.071885 0.35047 0.30932 -0.14831 -0.31419 -0.45008 0.064051 -0.32539 -0.40859 0.33897 -0.28865 -0.21424 0.31936 8.2719E-4 -0.16589 -0.13297 -0.69198 0.12552 0.33965 0.15026 -0.010343 0.38688 -0.12355 0.032509 0.73827 0.10336 0.24216 -0.028064 0.10371 0.0084159 -0.20576 -0.45401 0.047533 -0.094674 -0.72323 -0.18228 0.058517 0.038106 -0.65844 0.29556 -0.10023 -0.53279 -0.34032 0.26422 0.11379 -0.42437 -0.16013 -0.22448 0.77138 -0.036674 1.278 0.59594 0.0094959 0.054942 -0.059363 0.27367 -0.18778 0.51857 0.26917 -0.26563 0.014147 -0.25906 0.10388 0.0018782 0.36989 0.058122 0.14824 0.49615 -0.76539 0.63159 -0.29992 0.41208 -0.032811 -0.01527 0.28316 0.078058 -0.018061 -0.048665 0.75958 0.35264
term 0.086833 -0.19687 -0.0011294 0.042014 0.37934 -0.067688 -0.019238 -0.28281 0.17606 0.56999 0.3454 0.57364 -0.054365 -0.18665 -0.35557 -0.27311 0.30074 0.12736 0.036002 -0.72515 -0.047339 -0.21328 0.51576 -0.12249 -0.3889 -0.22603 -0.15774 0.058413 -0.57592 0.022479 0.0084584 -0.34729 -0.26218 0.064849 -0.021965 -0.19651 0.11477 0.1413 -0.28063 0.60832 -0.20667 0.57564 -0.075041 -0.28759 0.46467 -0.59367 0.12027 0.42235 0.56773 -1.0622 -0.042382 0.066438 0.071361 -0.26751 -0.60382 0.40688 -0.080868 0.091331 -0.57074 -0.10263 0.10166 -0.27263 -0.070229 0.54821 0.70877 0.11034 -0.25031 0.57755 0.22135 0.11496 -0.31644 0.82913 0.37914 -0.21126 -0.56948 0.3116 -0.12269 0.36983 -0.017704 0.35083 0.50935 -0.14185 0.095268 0.13824 -0.023581 -0.083557 -0.44718 0.47618 -0.49976 -0.14206 0.086064 -0.19543 0.62057 -0.84605 0.53939 0.15309 -0.19672 -0.20259 0.13368 -0.083554
listing -0.0035621 -0.53695 -0.39862 -0.15185 0.068112 0.39458 0.11166 -0.55144 -0.038491 -0.34163 0.29289 0.4003 -0.12964 0.27941 0.16621 0.085248 0.017242 0.28742 0.063249 -0.61076 0.18703 0.085512 0.30771 0.16232 0.083414 -0.40052 0.19978 -0.25724 -0.0086172 0.83852 -0.13713 -0.042302 0.015913 -0.061609 -0.022587 0.066843 -0.34046 0.10989 -0.12931 0.11723 -0.42631 0.1467 -0.47241 0.2106 0.46501 0.026813 0.71312 -0.46706 0.35034 -0.58502 0.17586 -0.27118 -0.20203 0.05796 -0.30087 0.2136 -0.40899 0.17647 -0.47616 0.3012 0.59435 -0.32952 -0.026899 0.2202 0.42773 -0.36602 -6.721E-4 0.57004 0.1588 0.12582 0.85677 0.2853 0.22137 -0.31755 -0.61777 0.26592 0.089245 0.48896 -0.062122 -0.10112 -0.37022 0.21571 0.058929 -0.58695 0.12523 -0.39929 -0.083322 0.69491 -0.49546 -0.039367 -0.1943 -0.16519 -0.06676 -0.70287 0.4055 -0.18382 -0.47913 -0.0143 0.051998 0.075422
chemistry -0.025416 0.15494 0.41666 -0.26817 0.64466 0.32661 -0.32383 -0.41459 0.17408 0.03578 0.45393 -0.0384 -0.77291 -0.2792 0.14616 -0.031574 -0.52802 0.18283 -0.044609 -0.021798 -0.026211 0.41376 0.17211 0.00621 -0.77127 -0.1509 0.3843 -0.17569 -0.13247 -0.48244 -0.48376 -0.5477 0.010005 -0.40265 -0.29542 0.11297 -0.18577 0.43188 -0.11411 0.20011 -0.47511 -0.19535 -0.46069 0.23485 0.082157 -0.46412 0.34351 -0.39167 0.51201 0.3211 0.015702 -0.025646 -0.064252 0.31679 0.65946 0.1533 -0.078033 0.076426 0.25728 0.18984 0.077669 -0.28956 0.31227 -0.2334 0.40641 0.37869 0.1762 0.039521 -0.27819 -0.49709 0.37702 0.56817 0.24677 -0.082701 -0.4446 0.96323 -0.13069 0.12324 0.073722 -0.32919 0.057953 0.19854 0.32673 0.7171 0.59924 -0.34535 0.26636 0.6558 -0.71154 0.41143 0.76146 0.36964 0.7685 -0.18256 0.2327 0.48196 -0.27067 -0.10577 0.043326 -0.13249
seafood 0.10522 -0.71438 -0.5978 -0.96088 0.019011 0.058711 -0.26824 -0.63351 -0.029662 0.24741 -0.3044 -0.33064 -0.72949 0.15453 0.58929 -0.4174 0.37151 0.48096 0.047572 -0.55909 -0.54092 -0.11351 0.23363 0.22539 -0.48442 -0.68553 -0.17697 -0.75034 -0.35808 -0.084781 -0.2521 -0.1271 0.55597 -0.21109 0.070359 0.17215 -0.6913 0.53566 -0.38252 0.13039 -0.70046 -0.027016 -0.043197 0.24508 0.20783 0.055813 0.85734 -0.44903 0.72953 0.26454 0.10723 -0.71598 -0.38982 -5.3783E-4 -0.52339 0.034308 -0.069409 -0.30829 -0.16204 -0.38899 -0.20645 -0.69275 -0.69241 -0.22815 0.48348 0.3361 -0.10557 -0.35646 -0.46049 -0.77113 0.7775 0.8253 0.13074 -0.20329 -0.40726 -0.19588 0.14048 0.58059 -0.033685 -0.20663 -0.30065 0.093472 0.21362 -0.22957 0.30127 0.11052 0.52326 0.45725 -0.4946 0.73552 0.063947 0.64156 0.38993 -0.12287 -0.077489 0.16821 -0.073173 -0.33663 0.36469 -0.011416
CD -0.4535 -0.70391 -0.13248 0.10608 0.21349 -0.026028 -0.80352 0.01371 0.05732 0.14839 0.56499 -0.09716 -0.0068176 0.20928 0.15732 -0.61194 -0.13154 0.010983 -0.37398 -0.049534 -0.20464 -0.040909 0.39381 -0.043156 0.14078 -0.84002 -0.32796 0.098038 -0.18602 -0.027415 -0.17845 0.38503 0.8434 0.17303 -0.74515 0.043875 -0.3101 -0.21431 -0.023855 -0.73669 -0.11011 -0.1895 -0.59299 0.13475 0.1452 0.23933 0.60348 -0.02846 -0.045558 0.38497 -0.36096 -0.43637 0.31496 -0.14212 0.1271 -0.13003 -0.4583 -0.5164 0.59636 0.45627 0.13293 -0.27299 0.43548 0.63008 0.46025 -0.43366 0.33368 0.4988 0.018104 -0.082836 1.4923 0.38968 0.18446 -0.26286 -0.18069 0.63236 0.13617 -0.14111 0.075132 0.17146 -0.70684 -0.01092 -0.37011 -0.27947 0.48728 -0.47173 -0.39719 0.69629 -0.98919 -0.11789 -0.18515 -0.088166 0.78243 -0.22963 0.0095247 0.55384 -0.29312 -0.33807 -0.66212 -0.24275
mind 0.23121 -0.10512 -0.16413 0.31271 0.33165 0.48774 -0.16387 0.061541 0.1093 -0.0077622 0.057335 0.1009 -0.18577 -0.12651 0.1327 -4.385E-5 -0.173 -0.018783 0.3855 0.079921 0.012491 -0.13992 0.36547 0.13343 -0.66491 -0.49045 0.16362 -0.2714 -0.38257 -0.14442 -0.040904 -0.1637 0.18904 -0.48097 -0.19086 0.26564 -0.49752 -0.013642 -0.14047 0.070941 -0.060506 0.066007 -0.48332 0.22541 0.1527 -0.10236 0.58632 0.038406 0.059905 -0.26539 0.015912 -0.14716 -0.021191 0.22933 -0.14527 -0.15044 0.11953 -0.06069 -0.27889 0.17341 -0.069692 -0.54622 0.23956 0.13608 0.12321 -0.099571 -0.30119 -0.065531 0.014895 0.13542 0.58426 0.94118 0.29218 -0.098128 -0.54693 0.47461 0.30543 0.14838 -0.23922 -0.40207 0.064806 0.11842 -0.15463 -0.10838 -0.14313 0.3041 0.024018 0.35398 -0.75291 -0.058981 -0.0093048 -0.37936 0.35351 -0.35732 0.44272 0.13917 -0.21309 -0.1291 -0.24552 -0.37694
sex 0.040069 -0.45955 0.3486 0.33074 0.29958 0.26038 -0.50964 -0.6912 0.39951 0.84367 0.45097 -0.0016945 -0.48871 -0.55706 -0.16834 0.057573 -0.097731 -0.52089 0.03883 -0.093114 -0.28854 0.39642 0.45785 0.34621 -0.84672 -0.46827 0.22065 -1.1049 -0.89629 0.039589 -0.46912 -0.032564 -0.051523 -0.62581 0.037416 0.2513 0.04119 0.28825 0.031728 0.25854 -0.5374 -0.021316 -0.071654 0.90218 0.063665 -0.41158 0.15009 -0.33263 -0.094758 -0.40186 0.10426 0.072511 0.14917 -0.076551 -0.27029 -0.72001 -0.39479 -0.12061 -0.16081 0.16585 -0.52696 -0.096663 -0.20445 -0.010588 0.32076 -0.17189 -0.34582 0.082267 0.47337 0.31729 0.56256 0.44435 0.36785 -0.66179 0.06137 0.38495 -0.010573 0.38134 0.45164 0.21093 -0.31497 0.049769 0.099901 -0.18931 0.30453 0.32274 -0.038619 -0.16664 -0.89678 0.024784 0.24642 -0.51651 0.32895 -0.59503 0.49202 0.45402 -0.35921 -0.52421 -0.32801 0.25933
food 0.23857 -0.80485 -0.44894 -0.66939 0.13207 -0.079244 -0.32082 0.18533 0.1837 0.4647 -0.10085 -0.42272 -0.71924 -0.25493 0.53734 -0.18455 0.30082 0.18064 0.031686 -0.51991 0.043985 -0.12475 -0.15345 0.027124 -0.50659 -0.55399 -0.15255 -0.12826 -0.50422 -0.13161 -0.1071 -0.20719 0.26135 -0.45902 0.34485 0.0017871 -0.80752 0.91172 -0.16204 0.27564 -0.70164 0.30329 -0.6596 0.30237 0.48552 0.15468 0.11296 -0.21751 0.39677 0.26264 -0.23946 -0.50877 -0.10291 0.11446 -0.42716 0.13799 -0.16912 -0.18037 0.36707 -0.1826 0.19063 -0.49811 -0.39189 0.41906 0.53319 0.37039 -0.25885 -0.34385 -0.082613 -0.63894 0.55438 0.75873 -0.056577 -0.27353 0.00873 0.068098 -0.25612 0.30822 -0.10058 0.04619 -0.16853 0.39546 0.13524 0.1587 -0.25414 -0.30015 0.13473 0.45847 -0.44564 0.42822 0.293 -0.03789 0.59173 -0.10013 -0.26024 0.06287 0.12028 -0.66743 0.0091797 0.001997
precedent -0.012552 -0.014912 0.27625 0.3503 0.40192 -0.07486 0.27757 -0.02461 -0.46932 0.17131 0.29968 0.14971 -0.43315 -0.11578 0.26107 -0.065697 -0.028303 -0.39349 0.16805 -0.31627 -0.069523 -0.057146 0.035033 -0.038272 -0.23561 -0.29196 0.29156 0.035101 -0.31062 0.25149 -0.65073 -0.39786 0.23441 -0.53415 0.14433 -0.059296 -0.15719 -0.042551 -0.025603 0.11085 -0.45502 0.58372 -0.53327 -0.014026 0.23381 -0.20381 0.76825 0.11783 0.63091 -0.58461 -0.26075 0.32161 0.19306 -0.08484 -0.24792 0.17548 0.26214 0.26134 -0.53363 0.11295 -0.62421 -0.36578 -0.034338 0.11541 0.055501 -0.037054 -0.010396 0.60661 0.14507 -0.22694 0.44279 0.56296 0.28319 -0.44153 -0.60474 0.060963 0.038303 -0.13513 -0.10711 0.030627 0.064895 0.16915 -0.48825 -0.0045523 0.20077 -0.084082 -0.045536 0.32618 -0.6745 -0.28913 -0.37424 -0.38961 0.43063 -0.53374 0.25358 0.35689 0.020096 -0.35557 -0.12296 -0.2351
series -0.20195 0.37255 0.5179 0.32889 -0.21183 0.13438 -0.27728 -0.12726 -0.1569 -0.10106 0.17194 -0.4055 -0.31623 -0.4554 -0.025659 -0.48791 0.019969 -0.065852 0.11471 -0.11087 0.34766 0.15352 0.63378 -0.44292 -0.085815 -0.76459 0.47277 -0.4666 -0.28087 0.046434 -0.23584 0.10832 0.66021 -0.11954 0.56047 0.033271 -0.12675 -9.6932E-4 -0.034474 0.50922 -0.15029 0.35631 -0.13154 0.77078 0.44408 0.11366 0.48338 0.32949 -0.21619 -0.32428 -0.64294 -0.55655 0.10285 0.14736 0.0012079 0.20448 -0.010958 0.063424 -0.19313 -7.6666E-4 0.17263 -0.039281 0.22277 0.31581 0.28411 -0.12017 -0.25204 0.82372 0.12426 -0.3698 0.15317 0.45274 -0.15734 -0.10708 -0.43823 0.22911 -0.061289 0.32814 0.31506 -0.5452 0.017232 -0.089938 -0.32826 -0.29425 0.65603 -0.20586 0.093582 0.06901 -0.29851 -0.10399 -0.04612 -0.12383 0.10639 -0.6067 0.17602 0.084878 -0.19835 0.10168 -0.28921 0.021714
kilometer -0.46023 -0.1626 0.43122 -0.23387 0.29779 1.295 -0.057379 0.13632 0.18784 0.15004 0.79196 0.3796 -0.010221 -0.72517 0.17777 -0.30805 -0.056079 0.2004 -0.12018 -0.39624 -0.83545 0.44997 -0.21592 -0.53725 -0.22902 -0.69061 0.27948 0.6044 0.1895 0.17992 0.18009 0.27274 0.47287 0.63043 0.40152 -0.5197 -0.48444 0.082155 -1.2824 0.27213 -0.64832 0.29984 -0.16421 0.74124 0.30875 -0.83823 0.33938 -0.026837 0.99706 0.10186 0.085751 -0.14941 0.48678 -0.85471 -0.51922 -0.77384 -0.28432 0.050827 -0.43249 0.53421 -0.042755 -0.51161 0.10103 0.19803 0.058936 0.01763 -0.37243 -0.43799 0.14061 -0.222 1.1111 -0.033971 0.37865 0.11018 0.4333 -0.32376 -0.074043 -0.22865 0.13966 -0.95638 0.58295 0.16115 0.19496 0.0075806 0.23336 0.49286 -0.31819 1.0524 -0.29773 0.83072 0.022382 -0.53948 0.20647 -0.87847 0.35461 -0.29091 0.47797 0.70662 0.75975 -0.23519
grocery -0.42982 -0.83963 -0.67709 -0.80055 0.19526 0.33733 -0.78974 -0.025687 0.061774 0.21313 0.5018 -0.39855 -0.56736 0.026869 0.43173 -0.54338 0.038355 0.58978 0.13838 -0.14365 -0.16522 -0.1603 0.50808 -0.22084 -0.2192 -0.34159 -0.76137 -0.081913 -0.69411 -0.32149 -0.17297 -0.23288 0.33529 -0.1187 -0.12753 0.034206 -0.55396 0.87623 -0.39071 0.20099 -0.86666 0.54777 -0.43347 -0.14043 0.53376 0.22566 -0.14064 -0.37097 0.049095 -0.043456 -0.22355 -0.6495 -0.31022 -0.019635 -0.44474 0.082054 0.072636 -0.30667 -0.23711 -0.35207 -0.13931 -0.48788 -0.68458 0.22884 -0.099763 0.26552 -0.40784 -0.25465 -0.0095929 -0.58182 0.9444 0.75719 -0.2967 -0.25266 -0.016884 0.21315 0.21663 0.22497 0.020208 0.096269 -0.77427 0.047546 0.30958 -0.17931 -0.25927 -0.38716 -0.12103 0.32759 -0.80792 0.23123 0.44088 -0.28247 0.225 -0.19375 -0.21232 0.21589 -0.33308 -0.48904 0.42541 0.096813
wizard 0.029213 0.17464 0.15676 0.17988 -0.46815 0.41437 -0.32954 0.062663 0.23182 -0.054335 -0.11484 -0.42385 -0.34191 -0.38294 -0.44262 -0.438 -0.21762 -0.18697 -0.12172 -0.21315 -0.041628 0.32178 0.35285 0.013675 -0.38657 -0.12566 0.092878 -0.40948 -0.19642 -0.05177 0.21799 -0.06434 0.28563 0.1485 -0.4873 0.26759 -0.17195 -0.057341 0.088358 -0.63092 -0.3163 -0.03855 -0.13581 0.61386 -0.15202 0.014369 0.60561 -0.10758 0.37101 -0.21374 -0.22938 -0.26723 0.10751 0.19766 0.33576 -0.069729 0.17335 -0.095835 0.098453 0.21686 -0.11872 -0.73784 0.28331 0.17718 0.33265 0.11933 -0.63025 0.96789 -0.069122 -0.043476 0.77691 1.2036 0.0015507 -0.43788 -0.47049 0.4911 0.30145 -0.081815 0.49209 -0.13201 0.24827 0.14955 -0.050992 0.21793 0.015144 -0.41876 0.039703 -0.2112 -0.87232 -0.14282 -0.1322 0.030311 0.492 -0.31833 0.24262 0.27583 -0.44499 -0.24057 -0.089823 0.02675
information 0.5271 0.080362 -0.074608 -0.36562 0.57945 0.46018 0.24034 -0.21702 -0.057805 -0.18982 0.37497 -0.34779 0.02142 -0.27271 0.47169 0.10452 -0.29516 0.34179 -0.11948 -0.064386 0.17017 0.041123 0.22229 0.18225 -0.53408 -0.54495 0.15152 -0.087529 -0.49174 -0.084683 -0.67616 -0.39859 0.016056 0.013954 0.25774 0.087387 -0.61445 -0.17785 -0.13338 -0.1565 -0.44696 -0.16951 -0.31206 0.23418 0.23195 0.040933 0.99403 -0.79001 0.12854 -0.44555 -0.38028 0.060664 -0.024704 -0.38532 -0.14138 0.11121 -0.27502 -0.53083 -0.4953 0.34863 0.18547 -0.22194 -0.083861 0.35067 -0.16902 0.12596 0.06621 0.46447 0.5913 0.020221 0.63973 0.40757 0.016168 0.11161 -0.37772 0.61097 0.13108 0.16367 0.27415 0.27814 -0.28538 0.42427 0.58162 -0.46578 -0.40678 -0.4408 -0.16649 0.23285 -0.32 0.23914 -0.12296 -0.4783 0.66886 -1.0078 -0.25086 -0.16276 0.10842 0.39399 0.23745 -0.080326
Israel 0.42755 -0.20517 0.24478 0.10032 0.35225 0.27673 0.047526 -0.22601 0.070724 0.28788 0.1452 -0.27354 -0.56868 0.4768 -0.37027 0.093383 0.12412 0.83971 -0.64244 -0.22333 -0.10401 0.32893 -0.12931 0.26869 -0.46407 -0.43793 0.18867 0.055676 -0.60642 0.57504 0.20139 0.24993 0.38784 -1.4965 0.30147 -0.39282 -0.41652 -0.56473 -0.71338 -0.054205 -0.35682 -0.099295 0.024072 0.63669 0.51152 0.11131 0.34573 0.51094 -0.36979 -0.53107 -1.2604 -0.21086 0.24297 -0.37313 -0.10677 0.39559 -0.15965 0.86023 0.065204 0.54693 -0.75392 -0.97655 -0.30305 -0.47636 -0.51304 0.037468 0.36662 0.43894 0.17939 -0.34709 0.34914 0.65661 0.069459 -0.34343 -0.48892 0.16072 0.15891 0.86789 -0.080055 0.10279 -0.10102 0.11681 -0.029864 0.33199 0.36346 0.48317 -0.32393 0.85358 -1.2 0.043903 0.74468 -1.1861 0.12788 -0.7259 -0.82391 0.37507 -0.077963 -0.014357 0.179 -0.09102
brandy -0.11645 -0.57577 -0.47021 -0.2248 -0.12492 0.53904 -0.4468 0.061403 0.41501 0.36968 0.4077 -0.079835 -0.15471 -0.22865 -0.16974 -0.48928 0.057516 0.074363 0.23033 -0.14504 -0.20651 0.16127 0.30236 -0.18263 -0.62603 -0.37726 -0.18723 -0.48913 -0.51977 -0.34218 -0.41396 0.1039 0.27199 -0.18212 -0.15367 0.060382 -0.40067 -0.10469 -0.089425 -0.048687 -0.46008 0.064055 -0.25869 -0.16014 0.36759 0.40902 0.52738 -0.008787 0.33361 0.0080269 0.18689 -0.1789 -0.084189 0.10032 -0.16721 0.097222 0.12159 -0.22729 -0.14246 -0.07337 -0.2422 -0.39057 -0.28731 -0.44657 -0.066317 0.43889 -0.66227 0.10153 -0.13234 -0.31488 0.44076 0.70697 0.34115 -0.30747 -0.13757 -0.063097 -0.2816 -0.021076 0.059263 -0.13192 -0.41337 -0.45317 -0.11313 -0.26555 0.14101 0.020802 0.34719 0.28952 -0.63529 0.040957 0.20822 -0.27863 0.43463 -0.21125 0.18133 0.048904 -0.29398 -0.14109 -0.037415 -0.0021888
interview 0.26862 -0.18563 0.82173 0.15338 0.32801 0.39761 -0.091595 0.10419 -0.10785 0.10106 0.57505 -0.10766 -0.27888 -0.2236 0.55275 -0.66935 -0.1863 0.099975 0.036028 -0.20262 0.62753 -0.13765 0.39393 -0.10306 -0.37893 -0.90682 -0.31369 0.10239 -0.28919 0.05505 0.061846 -0.4348 0.16978 -0.24886 0.2042 0.17741 -0.55703 -0.27496 0.20571 -0.12156 -0.42668 0.064489 -0.11213 0.23837 0.08616 -0.38581 0.13046 0.40861 -0.018292 -0.013178 0.070451 -0.013865 -0.24344 0.073806 -0.47489 -0.0063706 -0.57256 0.35842 -0.5668 0.40014 -0.38293 -0.1215 -0.17177 0.52926 0.29704 -0.14398 -0.43591 0.41788 0.34507 -0.059704 0.4176 0.29899 0.88495 5.9283E-4 -0.43105 0.38235 -0.70314 0.23147 0.23499 -0.19855 -0.1703 -0.035086 0.17981 -0.21786 0.27365 0.037679 0.24246 0.49281 -0.65978 0.050314 -0.070719 -0.36542 0.13223 -0.4717 0.11871 -0.0080388 -0.25403 0.34667 -0.040559 -0.18493
prominence 0.14583 -0.027025 0.36307 -0.1383 0.37521 0.19849 -0.64516 0.031237 0.089027 -0.23004 0.24092 0.04679 -0.53192 0.16864 -0.36332 -0.38318 -0.039358 -0.35673 0.22187 -0.024923 0.37033 0.43308 -0.032456 -0.089791 -0.57513 -0.34685 -0.10025 -0.41027 -0.21672 0.0052128 -0.012169 -0.16243 0.42508 -0.044509 -0.069474 0.14595 0.029815 0.11438 0.11514 0.085019 -0.1686 0.19769 -0.36076 0.38488 0.59722 0.0073515 0.78646 0.028155 0.22704 -0.11963 -0.17292 0.21425 0.050029 -0.29533 -0.40627 0.181 -0.09335 0.19025 -0.51719 -0.057407 0.035224 -7.8919E-4 -0.23768 0.10556 0.35457 -0.088114 -0.11053 0.36596 0.091002 -0.30775 0.26307 0.67899 0.16091 -0.61901 -0.015983 0.29017 -0.22803 0.38128 -0.24047 -0.09258 -0.20856 0.13307 0.16547 0.43299 0.13953 -0.47952 -0.12966 0.10476 -0.24477 0.085358 -0.041789 -0.50447 0.42447 -0.29951 0.46638 0.3219 -0.17237 0.35071 0.047982 -0.19489
bed -0.19432 -0.76651 -0.24838 0.20814 -0.015453 0.4176 -0.69494 0.086122 0.87801 0.62004 0.20438 -0.53412 -0.27321 -0.31432 0.40791 0.14049 -0.14977 -0.22642 0.46055 -0.37005 -0.20367 0.23756 0.14625 -0.35351 -0.57956 -0.63925 -0.42129 -0.069692 -0.25423 -0.22741 -0.035366 -0.49006 0.40452 -0.033934 0.079241 0.011865 -0.21277 0.10034 -0.17034 -0.12971 -0.060982 0.26509 -0.41938 0.20253 0.22444 -0.32847 -0.010067 0.12841 -0.089446 0.15179 -0.2091 -0.035862 0.11513 0.37273 -0.24963 -0.25704 -0.28866 -0.11107 0.17694 0.12918 0.20202 -0.84498 0.25928 -0.078947 -0.015222 -0.33404 -0.43907 -0.25847 0.52411 0.29385 0.82753 0.61683 0.51079 -0.45013 -0.010426 0.49452 -0.034932 0.3833 -0.017577 -0.16719 0.0022708 0.089948 -0.15858 -0.30301 0.33262 0.1878 0.11696 0.45214 -0.74468 0.21324 0.12951 -0.064318 0.05877 -0.076279 0.23727 -0.20968 -0.11676 -0.39455 0.35248 -0.11063
furnace -0.40921 -0.35165 -0.39818 -0.41066 0.093063 0.259 -0.12146 0.31448 0.60135 0.37048 0.007812 -0.15428 -0.24513 -0.32255 0.43599 0.086759 -0.12671 0.41264 -0.456 -0.2963 -0.4485 0.36839 -0.11918 -0.51817 -0.68728 -0.66394 0.28562 0.047482 -0.17743 -0.52918 -0.41686 0.18777 0.67454 -0.20262 0.069588 0.0022693 -0.77313 0.37138 -0.0088136 0.050078 -0.098461 0.70117 -0.13806 0.045047 0.75777 -0.18227 0.13696 0.16635 0.26157 0.28821 -0.248 -0.54677 -0.52977 -0.25829 -0.022089 0.39831 -0.29219 -0.26882 0.218 -0.24294 0.030423 -0.36393 0.3471 -0.10431 0.18282 0.096486 0.066465 0.06144 -0.043956 -0.22844 0.73069 0.38662 0.28655 -0.46533 -0.54501 0.37176 0.5031 0.1258 0.024485 -0.15078 0.077867 0.30812 -0.077927 0.013846 0.53482 -0.094006 0.0024227 0.63485 -0.41098 0.41537 0.63168 -0.082833 0.09245 -0.39406 0.021938 -0.71691 0.11989 -0.56316 0.41632 -0.12987
evidence 0.43656 -0.20772 0.073888 0.42224 0.45938 -6.9528E-4 9.6922E-4 0.16574 -0.30068 -0.072802 0.56822 -0.20856 -0.5525 -0.32892 0.67989 0.2673 -0.15338 0.048786 0.35252 -0.46634 0.10875 0.075447 0.072591 -0.023187 -0.48045 -0.74746 0.44699 0.41164 -0.48356 -0.56837 -0.3902 -0.70478 0.21462 -0.33236 0.10641 0.19155 -0.28301 -0.093152 0.097308 -0.035841 -0.27049 0.47178 -0.26984 0.097111 0.055244 -0.22355 0.62754 -0.3802 -0.088571 0.13701 0.025262 0.14824 0.25191 -0.39585 -0.38131 -0.26524 -0.46681 -0.10755 -0.46097 0.04858 -0.36518 -0.46182 0.012398 -0.33389 0.22033 0.22415 -0.19129 0.27592 0.619 -0.37455 0.45322 0.35263 0.32912 -0.50273 -0.69423 0.65627 -0.047814 0.31782 -0.57339 -0.16804 -0.23641 0.1511 0.19778 0.20036 -0.082125 -0.3276 0.48236 0.12443 -0.38549 0.23094 -0.2806 -0.29061 0.48852 -0.50252 -0.031856 0.70936 -0.047191 -0.26934 0.2152 0.1658
sprint -0.27201 -0.14591 -0.07932 0.98667 0.092245 0.37727 -0.39404 0.048402 -0.13284 0.091787 1.0298 0.2765 -0.19115 -0.33751 -0.14819 -0.62411 0.21655 -0.59019 -0.34213 -0.19622 -0.11831 0.12695 0.46253 -0.30921 -0.2424 -0.12732 0.43926 0.11336 0.26865 0.27254 0.12103 0.40885 -0.095716 0.19552 0.35351 -0.26996 -0.13425 -0.093485 -0.58017 0.097566 -0.34748 0.67358 0.14657 0.042994 0.4712 -0.4545 0.62814 0.38899 0.40953 -0.10992 0.79705 0.18483 0.0065879 -0.058845 0.27684 0.41031 -0.091785 0.36826 0.047771 0.22147 0.17271 -0.40867 -0.44153 -0.17356 0.66044 -0.050517 -0.47988 -0.47608 0.12085 -0.73206 0.7748 0.85936 0.85923 -0.28692 -0.41204 0.19298 -0.060327 0.30385 0.10292 -0.9133 0.12469 0.018477 -0.12751 -0.11452 0.19656 0.11397 0.6771 0.19008 -0.43765 0.1686 0.79729 0.16761 1.3041 -0.67723 0.53999 0.63737 0.19321 0.79057 -0.14304 0.35061
emergency -0.26232 -0.36705 -0.29292 -0.39512 0.73752 -0.081951 0.22502 0.092724 0.18073 0.45005 0.44745 -0.50069 -0.45699 -0.61386 0.41665 0.42099 0.10005 -0.1005 0.38629 0.30652 0.555 0.18884 -0.54783 -0.51722 0.48804 -0.6215 -0.53519 0.24996 -0.3403 -0.013221 -0.090413 -0.22001 0.28698 -0.36586 0.17067 -0.1294 -0.60233 0.35954 -0.14313 0.36009 -0.4341 0.38418 -0.40592 0.39176 -0.15347 -0.41012 0.12936 0.1494 0.26715 -0.45129 -0.48219 0.04658 -0.14451 0.15715 -0.44803 0.30025 0.41842 -0.13577 -0.19458 0.64061 0.32057 -0.63163 -0.24482 0.64078 0.17545 -0.1851 -0.1753 0.28403 0.7083 0.29915 0.30891 0.078455 0.04886 -0.55481 -0.67091 -0.094415 -0.052229 0.51255 0.23605 -0.144 0.0988 0.25025 -0.14157 -0.20788 0.3372 -0.025229 -0.39646 0.49892 -0.51595 0.23736 -0.26215 0.095614 0.35341 -0.46399 -0.13417 -0.24015 0.27471 -0.48765 0.24149 -0.37206
Jackson 0.15457 -0.46289 0.58056 0.75615 0.056326 0.69349 -0.28058 0.18812 -0.36934 0.25481 -0.0098972 -0.59513 -0.063228 -0.14264 0.043165 -0.14397 -0.34818 -0.5434 0.12885 -0.019178 0.6482 -0.041044 -0.13542 -0.80251 0.26105 -0.45766 0.1754 0.010268 -0.23276 0.25444 -0.12991 -0.22518 -0.039012 0.36435 -0.18037 0.60911 -1.0208 0.50616 -0.29606 -0.14733 -0.095203 -0.069102 -0.10516 0.42985 0.25724 0.37506 0.19708 -0.14662 -0.14613 0.40184 -0.63994 0.31419 0.07417 -0.2968 0.090973 0.3359 0.19199 -0.18788 0.0026558 0.48088 0.37795 -0.97148 0.044389 0.32354 -0.4231 -0.49184 -0.15383 0.31591 -0.21181 -0.96153 0.99034 0.072911 0.36096 -0.86618 -0.42498 0.22755 0.24156 0.55771 0.27477 -0.17816 -0.2343 -0.3699 -0.26285 -0.046167 0.18716 -0.46641 -0.16635 0.47854 -0.92743 -0.041046 -0.13916 -0.12093 0.36635 -0.52701 -0.010975 0.55758 -0.36571 -0.049905 -0.57238 0.15712
institution 0.14951 0.048418 0.23027 0.064926 0.51641 -0.34695 0.11374 -0.11403 0.18009 0.51292 0.28922 0.17969 -0.46597 -0.45304 -0.22349 -0.22372 -0.053159 0.020355 0.046547 0.1443 -0.46263 0.072783 0.022126 0.18103 0.21538 0.18721 0.055889 -0.15335 -0.26141 0.1952 -0.29401 -0.38865 0.18822 -0.28856 -0.32514 -0.031166 -0.49874 0.19451 -0.084941 0.34787 -0.5565 0.28761 -0.50786 0.23542 0.23659 -0.40797 0.37914 -0.0086956 0.56906 -0.15266 -0.25097 0.25078 -0.14758 -0.089399 -0.30829 0.27798 0.18182 -0.02138 -0.55768 0.69057 -0.24614 -0.06384 0.26812 0.30124 0.49584 -0.038937 -0.3089 0.56305 0.047383 -0.20805 0.49651 0.55013 -0.34527 -0.56924 0.11929 0.22095 -0.17948 0.311 -0.048443 0.2435 -0.24342 0.35011 0.25908 -0.059343 0.33985 -0.16429 -0.23854 0.088728 -0.99552 -0.22852 -0.2375 -0.11946 0.68345 -0.16269 0.17924 -0.033381 -0.34872 -0.13586 0.4854 -0.53684
bird 0.046366 -0.9013 -0.67608 -0.31208 0.088304 0.5656 -0.50209 -0.12291 -0.67153 -0.20666 -0.45009 -0.1229 -0.34449 -0.47088 -0.10486 -0.09644 0.27087 0.49093 0.44118 -0.59522 -0.098185 0.45675 0.095669 -0.27177 -0.6684 -0.22734 -0.2734 -0.35882 0.28602 -0.17402 0.20839 0.020965 0.45607 -0.29041 0.098948 -0.11876 -0.12683 0.2683 -0.12879 0.023875 -0.19363 0.23026 0.18453 0.97043 0.061124 -0.18964 1.0041 -0.29851 0.56451 -0.44057 0.20024 -0.3433 0.10178 0.2302 -0.081948 -0.76695 -0.18186 -0.28221 -0.40706 0.32249 -0.163 -1.1631 -0.10963 -0.093104 0.53093 -0.031388 -0.513 -0.018225 -0.29675 -0.061097 0.33126 0.48683 0.16102 -0.62539 -0.29439 0.48611 0.47299 0.72288 0.45024 -0.55043 -0.18254 0.45317 0.19537 -0.54457 0.5155 0.22771 0.57984 0.32887 -0.33006 -0.027824 0.10078 0.13445 0.30287 -0.15977 -0.26778 0.23068 0.070955 -0.40258 0.34733 0.41357
Brazil -0.36141 -0.044829 -0.13072 -0.082427 0.1954 -0.43285 -0.52336 0.41549 0.17702 -0.13017 -0.014951 -0.36535 -0.86547 -0.023931 0.6175 0.095879 -0.17827 -0.37661 -0.56391 -0.39689 -0.019225 0.1643 -0.27201 0.18319 -0.22765 -0.77267 -0.35567 0.23572 -0.33308 0.70245 -0.65502 0.19802 -0.033256 -0.26182 -0.10274 -0.29521 -0.46624 0.14228 -0.18993 0.97446 -0.35117 0.13384 0.49265 0.47029 0.66802 -0.52455 0.31526 0.03913 0.24174 0.12113 -0.58195 0.036632 0.35793 -0.12425 0.2537 -0.0029171 -0.022798 0.47304 -0.34656 0.20287 0.46436 -0.5842 -0.35011 0.68569 0.12385 0.40898 -0.011992 0.73602 -0.31353 -0.60956 0.95615 0.24362 0.64114 -0.43056 0.19302 -0.21592 0.21603 0.53626 0.078394 -0.39881 0.56322 0.36785 -0.017372 0.0045387 -0.22177 0.23296 0.04834 0.77307 -0.27086 -0.5815 0.41435 -0.28929 0.7126 0.094111 0.3033 0.1369 -0.27403 0.51303 0.12825 0.53853
warning 0.078967 0.10243 -0.30795 -0.075747 0.13326 0.20255 -0.23481 0.099167 -0.16317 0.29685 0.49815 0.15305 -0.73737 -0.22909 0.008888 0.57055 0.31487 -0.0032392 -0.087589 -0.064743 0.27252 -0.48012 0.14005 -0.3749 -0.46236 -0.57307 -0.32983 0.41728 -0.50756 -0.18589 -0.18692 0.15165 0.64411 -0.48872 -0.29751 -0.53347 -0.7628 -0.12533 -0.16679 0.14152 -0.70673 0.19685 -0.18534 0.60988 0.17327 0.47945 0.46874 -0.11117 0.72363 -0.29259 0.35213 -0.021715 -0.0048205 0.023952 -0.20689 0.060538 -0.11318 0.11065 -0.43042 0.0075474 -0.18499 -0.43824 -0.42155 0.12 0.24768 -0.11585 -0.25511 0.3652 0.56547 0.51408 0.19084 0.38558 0.45595 -0.33021 -0.59347 0.33013 0.1326 0.039242 -0.038491 -0.25326 0.15838 0.42432 -0.13542 -0.25222 0.32062 -0.11547 0.11379 0.14457 -0.18238 -0.031606 -0.35439 0.012327 0.024989 -0.86724 -0.13207 0.21266 0.11005 -0.013296 0.24197 -0.73268
implement 0.013732 -0.23971 -0.040915 0.040833 0.60312 -0.35655 0.47637 -0.24204 0.025253 0.46893 0.56309 0.085082 -0.23854 -0.47894 0.3246 -0.33127 -0.39898 0.186 0.21255 0.0021704 0.18649 0.22611 0.19821 -0.42957 -0.21177 -0.48903 -0.024211 -0.16281 -0.281 0.27866 -0.66014 -0.06516 0.43791 0.11633 0.20087 -0.38345 -0.15797 0.078888 -0.1947 0.65795 -0.87763 -0.086848 -0.40919 -0.21733 0.60403 0.084017 0.39086 -0.060178 0.40659 -0.7733 -0.2283 0.052106 -0.38426 -0.099277 -0.56795 0.40442 -0.13609 0.14711 -0.22282 0.60638 -0.09082 -0.21024 0.11852 0.50074 0.032658 0.44982 0.069383 0.43252 -0.2457 0.38036 0.24334 0.57989 0.34546 0.10197 -0.20249 0.58471 -0.19176 0.38402 -0.40846 -0.23198 0.18533 0.90193 -0.391 -0.24686 0.21491 -0.04437 -0.021322 0.32526 -0.48475 0.096389 -0.098052 -0.12923 0.51686 -0.54544 -0.28354 0.33616 0.41632 -0.44274 -0.038615 -0.16168
train -0.15625 -0.15265 -0.50095 0.029246 0.42502 0.32845 -0.615 0.13785 -0.19591 0.33707 0.25216 -0.4082 -0.47538 -0.206 -0.0097099 -0.045207 0.23027 0.048445 -0.28216 0.84106 0.23776 0.67104 0.2377 -0.34563 -0.2174 -0.23066 0.16444 0.24829 0.011169 -0.16244 0.036892 0.44722 0.37959 -0.079366 0.10855 -0.048078 -0.46597 0.21788 0.15321 0.13628 -0.48386 -0.032541 0.17544 -0.018279 0.6413 -0.48871 0.24348 0.26564 0.092879 -0.31775 0.24929 -0.13733 -0.086617 -0.0094844 -0.3723 0.034578 -0.03959 -0.4179 -0.59006 0.69009 -0.22203 -0.7109 0.19215 0.53826 0.41591 0.085693 -0.008215 -0.54955 0.61481 -0.056661 0.72333 0.91515 -0.06333 -0.16572 0.079635 0.31814 0.0052052 0.030661 0.26389 -0.03916 0.33366 0.39348 -0.63093 -0.52609 0.15757 0.22374 -0.12645 0.16804 -0.4432 0.59658 0.18424 0.042281 0.32302 -0.62376 0.575 -0.11435 0.45926 0.25992 0.2509 0.094073
area 0.20859 -0.19132 -0.30679 -0.29797 0.16311 0.41827 0.10484 0.14583 0.043868 0.25139 0.42162 -0.17618 -0.14664 -0.33527 0.040286 0.020975 -0.13637 0.25773 0.15896 -0.041116 -0.1505 0.41918 -0.18406 -0.29123 0.13214 -0.20272 -0.021862 0.38978 -0.17978 -0.41134 -0.08981 -0.31196 0.33666 0.13712 -0.050894 -0.25955 -0.81935 0.25305 -0.039215 0.4476 -0.22171 0.38774 -0.3694 0.49238 0.77836 -0.50701 0.7363 0.18627 0.24852 0.014221 -0.1572 -0.10153 -0.026926 0.020373 -0.27954 -0.070437 -0.24344 -0.15686 -0.49611 0.10844 0.031481 -0.21892 -0.07733 0.091548 0.066559 0.27689 -0.29764 -0.15207 0.31778 -0.038684 0.69846 0.49929 0.079699 -0.35893 -0.068071 0.066726 0.1907 0.29704 -0.13677 0.10349 -0.017643 0.18814 0.186 -0.46171 0.32189 0.49746 -0.16887 0.44273 -0.20605 0.17433 -0.10351 0.0037758 -0.10984 -0.69597 0.023138 0.23722 -0.034612 0.27099 0.28907 0.44425
image 0.33939 0.10671 -0.0045594 0.3269 0.4877 0.24594 -0.036345 0.45977 0.75297 0.03044 -0.035063 0.11089 0.011972 -0.49574 -0.13895 -0.41504 -0.13803 -0.083051 0.3533 -0.33436 -0.0081372 0.25692 0.45644 0.1428 -0.79384 -0.47044 -0.14227 -0.45121 -0.28534 -0.24366 -0.43493 0.06777 -0.043609 -0.15833 -0.18971 8.774E-4 -0.30821 -0.18074 0.11694 -0.20257 -0.25473 0.52142 0.18473 0.54915 0.21162 0.18855 0.88082 0.46117 0.35545 -0.2576 -0.18698 -0.22264 -0.12416 -0.28718 -0.45757 -0.013193 -0.17748 0.028226 -0.15269 0.61737 -0.19288 -0.20709 -0.22009 0.081913 0.36558 -0.017253 -0.43369 0.61313 0.29596 0.025492 0.21972 0.67704 0.3576 -0.5635 -0.11498 0.45905 0.23833 -0.25004 0.038221 -0.47481 -0.37552 0.059376 -0.059079 -0.13637 -0.068959 -0.089863 -0.073677 0.05074 -0.5749 -0.28287 0.2659 -0.20048 0.31181 -0.26036 0.19203 0.22616 -0.14668 0.035075 0.31357 -0.040689
murder 0.052514 -0.21821 0.47271 0.12305 0.26737 -0.11792 -0.37113 -0.27299 -0.44646 0.22827 0.34078 0.2503 -0.69246 -0.85259 0.35811 0.36481 0.21636 0.22362 0.006399 -0.48404 0.015556 0.8657 0.42807 -0.3896 -0.26521 -0.61141 0.0036853 0.0048668 -0.8102 -0.8863 0.32042 -0.67262 0.47978 0.39614 -0.064747 0.10579 0.037486 -0.18668 -0.3656 -0.093798 -0.039591 -0.022506 -0.3182 0.1289 0.82226 -0.56916 -0.48096 -0.022303 -0.37994 -0.5879 -0.041499 0.15903 0.25384 -0.23761 0.24886 -0.19742 0.43883 -0.21147 -0.88112 -0.06744 -0.75108 -0.29629 0.016594 -0.31406 0.32476 0.17391 -0.4303 0.051924 0.57479 -0.27664 1.0898 0.65299 0.31378 -1.4503 -0.35957 0.4584 -0.65585 0.23554 -0.38517 -0.10377 0.017769 -0.10466 -0.39632 -0.1359 0.12995 0.087168 -0.42667 -0.017507 -0.93371 0.49338 0.11012 -0.26705 0.57545 -0.6142 -0.016921 0.50602 -0.39338 0.14414 -0.27267 0.79698
journey -0.33976 -0.073433 0.16376 0.19797 -9.3449E-4 0.67037 -0.047703 0.36533 0.081943 -0.023718 -0.51998 -0.33907 -0.18412 -0.34761 0.16313 -0.34563 0.31628 0.20891 0.22057 -0.016252 -0.48868 0.51002 0.39068 -0.74396 -0.50974 -0.62453 0.42803 0.0042973 -0.19042 -0.0046024 0.024153 0.010532 0.315 0.035007 0.10063 -0.13502 -0.25044 0.36687 -0.2272 0.11836 -0.15633 -0.031699 0.22771 0.57998 -0.40461 -0.53913 0.27064 0.39099 0.50956 -0.5676 -0.060294 -0.11031 0.094759 0.12467 0.025729 0.25098 -0.24536 -0.27372 -0.56023 0.50245 0.22432 -0.44421 -0.062289 0.2278 0.060056 0.074765 -0.19829 -0.2847 0.14391 -0.18579 0.68206 0.95143 -0.10219 0.005752 0.14857 0.10318 -0.66431 0.066973 -0.09398 -0.33021 0.28013 0.15222 -0.49421 -0.51127 -0.35142 0.13845 -0.31535 0.31487 -0.92367 0.2351 0.34715 -0.023078 0.64301 -0.85399 0.4915 0.19201 0.38271 0.45365 -0.10099 -0.067886
minister 0.45467 -0.62154 0.40915 -0.0065949 0.59201 0.029313 -0.43424 -0.08615 -0.034902 0.55724 0.098086 -0.2123 -0.031601 -0.22458 0.050619 -0.19065 -0.063204 0.32454 -0.028672 -0.36083 0.46575 0.40987 -0.39132 -0.79009 -0.41652 -0.59501 -0.073974 0.02959 -0.6351 0.47462 -0.0033868 -0.43229 0.68286 0.066772 0.059104 -0.40868 0.075342 0.0026736 -0.2058 -0.11687 -0.17805 0.6892 -0.38397 -0.14958 0.34948 -0.52566 -0.32315 0.23614 -0.052293 -0.59259 -0.56867 0.082163 0.17959 0.10925 -0.24416 -0.14437 0.81775 0.2084 -0.67833 0.42488 -0.11041 0.079007 -0.74931 0.16429 0.63037 0.77927 -0.2836 0.87578 0.18648 0.35398 0.48829 0.7356 0.59578 -0.56032 -0.0038621 0.1495 -0.106 0.63174 0.1851 -0.38539 0.20761 0.5583 0.72658 0.46918 0.71434 -0.037304 0.494 0.48459 -0.303 0.18694 0.10687 -0.55773 0.31808 -0.48429 -0.19866 0.023241 0.034078 -0.047651 0.2999 -0.68331
planet 0.29244 -0.4045 0.028283 0.0039585 0.2203 -0.0057919 -0.47229 0.50149 0.25882 0.053046 -0.17079 -0.094429 -0.052821 -0.52947 0.28089 -0.075314 0.15732 0.2701 0.054156 -0.4011 -0.21985 0.0037599 -0.2613 0.025851 -1.0037 0.2776 0.7031 -0.30736 -0.32522 -0.45303 -0.52494 -0.24995 0.32459 -0.17248 -0.04967 0.12783 -0.31082 -0.1011 -0.21529 -0.021822 0.073936 0.27955 0.11817 0.83988 0.032298 -1.395 0.74708 -0.36187 1.0794 -0.12835 -0.13684 -0.055914 -0.024722 0.042471 0.29094 -0.18419 -0.46253 -0.023781 0.021987 0.56522 -0.13103 -0.63221 0.44509 0.45816 0.54321 -0.32897 -0.51089 0.43126 -0.1972 0.028244 0.60057 0.49071 0.42942 -0.27412 -0.032851 0.23586 0.41662 0.22055 -0.18874 -0.8596 0.14881 0.25034 -0.065969 0.21595 -0.3642 0.27123 -0.2317 0.92387 -0.9214 0.10045 0.61347 -0.10513 0.33881 0.0035566 -0.21867 0.17717 -0.072742 -0.15062 -0.18687 0.14778
article 0.74091 0.1273 0.34323 -0.22899 1.0235 0.28941 -0.046456 0.21157 -0.080277 -0.39879 0.42301 0.52127 -0.39966 -0.038698 0.68988 -0.80923 -0.094623 0.42341 -0.47487 -0.054191 -0.023753 -0.016428 0.5256 -0.084856 -0.38306 -0.28114 4.5329E-4 0.035824 -1.0713 0.30805 0.28133 0.0027404 0.12654 0.56386 0.39013 0.80883 -0.14633 -0.27841 0.27429 -0.19564 -0.45771 0.049211 -0.33569 0.1872 -0.37619 -0.079518 0.74808 0.57171 0.18328 -0.47817 -0.89938 0.26521 -0.19896 0.87687 -0.3913 -0.18748 -1.6276 0.4295 -0.40777 -0.049111 -0.9754 -0.53864 0.93271 0.30001 0.72226 0.2243 -0.4762 0.13275 -0.13737 0.15188 0.93138 0.18996 0.16838 -0.97422 -0.89352 0.14471 -0.49637 0.22662 -0.0083426 -0.24446 0.57161 0.35018 0.44173 -0.67198 0.55487 -0.62012 -0.13375 0.10735 -0.39585 0.097802 0.44027 -0.19078 1.0693 -0.47862 -0.30496 -0.24182 -0.34618 0.48172 0.38851 0.22036
anxiety -0.090835 0.246 -0.091683 -0.17693 0.36239 -0.05722 -0.31152 0.23727 -0.34545 0.39937 -0.02199 -0.098267 -0.25785 -0.40125 -0.17265 0.038408 0.1634 -0.34645 0.11613 0.1319 0.17309 -0.023312 -0.10271 0.010753 -0.95051 -0.55334 0.46711 0.17689 -0.74521 0.11224 -0.41738 -0.29911 0.0070116 -0.45945 -0.17308 0.12943 -0.61263 0.29627 -0.45651 0.53681 -0.21436 -0.1509 -0.6584 0.70647 -0.26649 0.25548 0.38595 -0.034546 0.051983 0.57937 -0.33881 0.16502 -0.26304 0.33503 -0.41451 0.04463 -0.05754 -0.30302 -0.045304 -0.083228 0.042911 -1.0376 -0.19178 -0.12783 0.36603 -0.20202 -0.32471 0.087511 0.45082 0.36692 -0.0028895 0.40348 0.010942 -0.41642 0.061207 0.67697 -0.064187 0.36876 -0.31548 -0.029177 -0.12258 0.068898 0.26288 -0.23242 0.36586 -0.15475 -0.15257 0.63327 -0.91171 0.063096 0.25551 -0.54158 0.066171 -0.72917 0.88224 0.31159 -0.012299 0.0071705 0.22388 -0.59975
month -0.14679 -0.34946 0.25551 -0.12282 0.35048 0.5513 -0.020673 0.050743 -0.12167 0.10309 0.80543 -0.10579 -0.44928 0.02597 -0.16532 -0.10601 0.68009 -0.080563 -0.0013444 -0.054491 0.26683 0.036755 0.53324 -0.38437 -0.20664 -0.68625 -0.075654 0.19209 -0.17174 0.25152 0.011025 0.054591 -0.094806 0.11026 0.20425 -0.32677 0.090733 0.10404 -0.17192 0.66171 0.084607 0.53589 -0.51466 0.32951 0.1972 -0.090984 0.28724 -0.19694 0.24226 0.0055949 0.021285 -0.39513 0.023954 -0.1586 -0.73582 -0.13918 -0.021013 -0.027592 -0.2006 0.10195 -0.14324 0.17553 0.29396 0.42962 0.17645 0.29384 -0.067068 0.62062 0.37089 -0.086569 0.3731 0.52015 0.067145 -0.26227 -0.21835 -0.0068033 -0.16184 0.34655 0.15717 -0.035154 0.24934 0.44251 -0.036721 0.2433 -0.11161 -0.040889 -0.33852 0.74422 -0.73213 -0.050143 -0.050471 0.050541 0.22985 -0.33688 -0.0054102 0.12292 -0.16685 -0.054377 -0.081171 -0.15745
carnivore 0.11855 -0.41947 -0.18235 -0.35677 0.11663 0.095392 -0.65146 0.27214 0.27442 0.088069 -0.32363 0.044827 -0.53207 -0.40033 0.19277 -0.27424 0.26668 0.12681 0.073865 -0.49009 -0.64513 0.39103 0.075781 -0.030357 -0.83325 -0.21213 0.25517 -0.57866 -0.1933 -0.05042 -0.37882 -0.11111 0.30192 -0.30245 -0.21418 0.13332 -0.30939 0.3206 -0.28399 -0.13618 -0.48492 0.070345 0.036448 0.66835 0.25773 -0.24808 1.0147 0.018156 0.48627 0.077222 -0.097262 -0.1408 0.019714 0.17202 -0.07468 -0.20283 -0.096846 -0.17228 -0.43692 -0.13456 -0.17327 -0.84271 -0.26735 -0.10449 -0.0049517 0.18862 -0.49687 0.095447 -0.17976 -0.3345 0.5881 0.26669 0.043731 -0.57881 -0.044476 0.15463 0.11517 0.51103 0.24486 -0.49768 0.0064181 0.24832 0.15255 -0.020135 0.056205 0.28536 0.27971 0.21261 -0.6568 0.14912 0.29871 0.063757 0.58409 -0.11475 0.15007 0.35223 -0.20944 -0.45578 -0.11281 0.17266
party 0.14291 -0.33388 0.25328 0.039237 0.62495 0.56624 -0.72291 0.18312 -0.21866 0.49128 0.26149 -0.29596 -0.1343 0.085804 0.32958 -0.49962 0.10195 0.05183 0.25317 0.011236 -0.22642 0.12175 0.31549 -0.24232 -0.3192 0.23096 0.21944 -0.45034 -0.76909 0.16033 -0.14275 0.01194 -0.069738 0.12449 -0.14634 -0.025059 0.15123 -0.025023 -0.23392 -0.045923 -0.13608 0.62732 -0.45674 0.09579 0.71164 -0.26854 0.4167 0.26262 -0.14568 -0.77489 -0.57466 0.281 -0.11578 -0.4688 -0.54361 -0.0017947 0.26951 -0.39438 -0.46237 0.30677 -0.028822 0.32491 -0.95781 0.19355 0.27632 0.068636 -0.40423 0.18659 0.32627 0.48737 0.37686 0.70262 0.29403 -0.48422 0.070632 0.45992 0.050225 0.65271 -0.19925 -0.20455 0.11322 0.36329 0.15136 0.3178 0.33659 -0.14013 0.23179 0.68248 -0.59672 0.29978 -0.056407 0.040604 0.12381 -0.19049 -0.048363 -0.11667 -0.11939 -0.50096 0.30176 -0.24946
production -0.33397 -0.43515 0.18505 -0.53619 -0.1784 0.30882 -0.26182 0.18712 -0.60202 0.19005 0.14981 -0.0981 -0.36698 -0.045094 0.24087 -0.62766 -0.11041 0.31041 -0.14871 -0.25273 0.072495 0.41977 0.017571 -0.50559 -0.57815 -0.72586 -0.0091123 0.11452 -0.42345 -0.45047 0.040348 0.075944 0.62267 -0.17494 0.42848 -0.076142 -0.28802 0.77843 -0.071624 0.41441 -0.51722 0.25684 0.18648 -0.23432 0.34751 -0.089394 0.30111 0.3192 0.26661 0.31151 -0.20181 -0.67781 0.040489 -0.21437 -0.15904 0.26285 -0.33652 -0.014762 0.41086 0.48641 0.10741 -0.11509 0.19093 -0.044422 0.50901 0.31402 0.52271 0.95449 -0.74297 -0.29994 0.50829 0.073361 0.39444 -0.37434 -0.53042 0.68387 -0.028825 0.41624 -0.13003 -0.04414 0.32887 -0.017943 -0.034698 0.24705 0.081723 -0.011616 -0.24678 0.43133 -0.27435 -0.20753 0.37983 -0.10481 0.28803 -0.7695 0.69465 -0.36286 0.1067 -0.39525 -0.25253 0.20917
importance 0.48114 -0.172 0.52225 -0.074458 0.4881 -0.0014125 0.244 0.33278 -0.066899 -0.21416 -0.13199 0.034842 -0.28648 -0.048591 0.0038906 -0.083611 -0.11619 0.027304 0.56904 0.18773 0.12178 0.12773 0.14239 0.29137 -0.5585 -0.53126 -0.11896 -0.074621 -0.53278 -0.002492 -0.53109 -0.20577 0.075276 -0.18373 0.25932 0.21055 -0.4156 0.16805 0.093634 0.27372 -0.57394 0.37618 -0.5041 0.23891 -0.096435 -0.080852 0.60718 0.018746 0.21963 0.13569 -0.39672 0.25535 -0.1878 -0.10006 -0.031056 0.34878 0.16129 0.065072 -0.45529 0.39361 -0.046408 -0.46638 0.0345 0.084086 0.35495 0.24711 -0.28369 0.48844 -0.018935 0.15124 0.26611 0.8166 -0.22252 -0.24912 -0.48848 0.024918 -0.095358 0.41175 -0.63782 -0.23249 -0.22495 0.58394 0.1121 -0.17482 0.047793 0.21657 0.43251 0.63947 -0.46744 -0.090453 0.17123 -0.40695 0.34816 -0.43208 0.2056 0.23195 -0.12142 0.17544 0.034437 -0.030874
inmate -0.072893 -0.57443 0.50386 0.11174 0.083254 0.37378 0.0083557 -0.83853 -0.14456 1.0875 0.65547 0.3528 -0.20102 -0.54587 0.12241 0.047633 -0.27319 0.064399 0.22347 -0.28005 -0.038484 0.51808 0.025929 -0.64043 -0.014874 -0.56105 -0.20885 -0.33544 -0.4951 -0.56267 0.018286 -0.61842 0.33834 -0.13589 -0.23869 0.28201 0.024309 0.408 -0.65607 -0.41556 0.26636 0.24374 -0.097375 0.31781 0.16788 -0.45291 0.021389 -0.29132 -0.19466 -0.47328 -0.041167 -0.27909 0.15034 -0.37836 -0.14906 0.039468 -0.37507 -0.016552 0.0034877 0.24728 -0.55827 -1.1303 -0.47188 0.41777 0.19165 0.12919 0.51455 -0.10763 0.90308 0.0089933 0.65439 0.38326 0.26659 -1.1464 -0.31821 0.070528 0.05527 0.25487 0.56629 0.23367 -0.1089 -0.086338 -0.028003 0.43618 0.40719 -0.0030948 -0.40933 -0.17374 -1.0318 -0.29163 0.18515 0.20475 0.91351 -0.63974 -0.017987 0.10417 0.2533 -0.22569 0.18058 0.43325
Harvard 0.087248 -0.063292 0.67924 -0.10184 0.65615 0.166 -0.63001 -0.67022 -0.034234 -0.30227 0.28148 0.10634 -0.55853 -0.046687 -0.40574 -0.26783 -0.44504 0.10835 -0.24291 0.31787 0.10087 -0.23091 -0.036987 0.027169 -0.23169 0.079402 0.05217 -0.18437 0.10475 -0.44318 0.32694 -0.78395 -0.2098 -0.095525 -0.17668 0.15002 -0.50325 0.4788 -0.65106 0.60414 -0.8391 0.050596 -0.062524 0.19434 0.11079 -0.18097 -0.21221 0.25138 0.40357 -0.27234 -0.5799 0.39944 -0.24335 0.7732 0.073312 0.27224 -0.5005 0.29523 -0.51563 0.15479 -0.16977 -0.80492 0.46921 0.13653 0.5029 0.15577 -0.29043 0.36462 0.25382 -0.17358 0.38436 0.39733 -0.11251 -0.55122 -0.082071 0.70028 -0.34749 0.2372 0.58598 -0.22459 -0.16494 0.2663 0.32678 0.88863 0.25675 -0.78394 0.30855 0.30054 -1.0911 -0.30338 0.19157 -0.11027 0.85269 -0.086449 0.11639 0.5103 -0.12839 0.44746 0.84416 -0.043178
psychology 0.14718 0.31347 0.40519 -0.074258 0.46491 0.062253 -0.31487 -0.35798 -0.14791 -0.15252 0.20386 -0.097179 -0.60979 -0.77492 -0.3686 -0.039373 -0.16822 -0.27094 0.035238 0.17113 -0.01741 0.1026 0.31281 0.38867 -0.35298 -0.01125 0.55538 -0.19506 -0.52643 -0.54154 -0.17306 -1.0463 0.14155 -0.45271 0.088181 0.071023 0.045828 0.6524 -0.30365 0.031236 -0.74893 -0.12362 -0.69633 0.36209 -0.18342 -0.13332 0.31441 -0.21165 0.16109 0.30527 -0.55781 0.18802 -0.23888 0.39375 -0.093442 0.014583 -0.026283 0.25407 -0.050912 0.36973 -0.32174 -0.46977 0.47186 0.19612 0.51331 0.15906 -0.27328 -0.069251 0.31566 -0.1139 0.3124 0.52528 -0.1135 -0.13031 -0.018452 1.0048 -0.32613 -0.12683 0.1274 0.093135 -0.24187 0.043263 0.41594 0.35612 0.39039 -0.34294 0.02948 0.45189 -1.2706 -0.089127 0.071041 -0.31315 0.45074 -0.78885 0.92956 0.67452 -0.18932 0.37068 0.32822 -0.24099
medal -0.093447 -0.50763 0.414 0.7155 1.0653 0.46048 -0.46218 -0.0056274 0.18055 0.076676 0.58615 -0.068483 -0.25024 -0.48294 -0.10962 -0.14178 0.58824 -1.1307 -0.55442 -0.57071 -0.23396 0.36417 0.63686 -0.0285 -0.85073 0.26344 0.44305 0.11118 -0.076877 0.31699 0.57871 -0.13966 -0.6911 0.15433 0.23435 -0.12296 -0.42924 -0.38696 -0.034526 0.074654 -0.44096 0.59368 -0.68532 0.23033 0.94119 -0.36415 0.14145 -0.023295 1.0201 -0.20864 1.0056 0.73458 -0.22861 -0.0096163 1.3193 0.92308 -0.25485 0.20044 0.32188 0.27205 0.34504 -0.37983 -1.0531 -0.094421 0.53781 -0.31961 -0.17072 -0.13178 -0.044516 -1.1364 0.8468 0.97924 0.03081 -0.55629 -0.4412 -0.038272 0.044058 0.1626 -0.1747 -1.0189 0.11275 0.5383 0.048518 0.1809 0.87967 -0.30656 0.43627 0.78921 -0.33744 0.074845 0.51297 -0.30762 0.57269 -0.75719 0.325 0.50477 0.26888 0.39837 0.38925 0.45935
company -0.29072 -0.63848 -0.026611 -0.56472 -0.01953 0.41851 -0.21609 -0.085277 -0.22725 0.079465 0.37359 0.20904 -0.32784 -0.080773 0.38085 -0.21362 -0.0014232 0.34894 9.8098E-5 -0.097982 0.25277 0.29689 0.18251 -0.31868 -0.27665 -0.34977 0.13911 -0.05351 -0.31032 0.042126 -0.17587 0.13694 0.23047 0.13961 0.23508 0.25487 -0.42354 0.068049 -0.10417 0.1718 -0.37989 0.054667 0.072216 -0.36606 0.45913 -0.058241 0.13965 -0.25665 0.46301 -0.17393 0.13636 -0.473 -0.54781 -0.14439 -0.56868 0.4824 -0.041971 0.18803 -0.18716 0.461 0.21513 -0.080862 0.092563 0.072156 0.093731 0.17092 -0.18738 0.95688 -0.24923 -0.0615 0.69103 0.21107 -0.0037248 -0.34038 -0.16898 0.61566 0.23509 0.085823 0.21649 0.044501 -0.21373 0.10714 0.30203 0.090684 -0.09276 -0.017319 0.047695 0.36916 -0.8183 -0.24035 -0.17228 -0.28544 0.5748 -0.54429 0.10052 -0.28833 -0.026799 0.014129 0.24653 -0.083356
live 0.45571 -0.41602 0.23578 0.16863 0.07594 -0.028053 -0.079792 0.079607 0.079494 0.10217 -0.1922 -0.12258 -0.093083 -0.039442 0.17023 -0.1431 0.57259 0.012705 0.40574 -0.19492 -0.2755 0.15428 0.30158 -0.47465 -0.66698 -0.44365 0.14744 0.16545 -0.0088214 -0.2538 -0.28363 -0.31216 0.48538 0.0049767 -0.090367 -0.19946 -0.3915 0.18339 -0.57201 0.12929 -0.46399 -0.18929 -0.55328 0.4922 0.65368 -0.47216 0.3998 0.17494 -0.017253 -0.24111 -0.3111 -0.20531 0.37531 0.0019572 -0.32853 0.2332 -0.40331 0.1207 -0.17241 0.51136 -0.16261 -0.25979 -0.025544 0.54379 -0.15654 -0.29478 -0.48125 0.13415 -0.06406 -0.15231 0.94518 0.16922 0.21632 -0.10006 0.009701 0.49926 -0.034726 0.36388 0.5046 0.35345 -0.53083 -0.038291 0.064718 -0.29309 0.20389 0.40119 0.021853 0.45042 -0.60679 0.012417 0.041237 -0.21506 -0.014608 -0.24871 0.3812 -0.50721 0.11812 -0.11612 -0.54436 0.16766
holy 0.064871 -0.51418 0.47315 0.36762 -0.23812 0.6722 -0.65194 0.33884 0.45186 -0.1446 -0.18223 0.21199 -0.71462 0.31972 -0.32509 -0.50021 0.40128 0.35814 0.12413 0.042403 -0.3576 0.57123 0.58449 -0.048743 -0.23243 -0.54805 0.46798 0.69125 -0.57383 0.34729 0.26179 -0.10093 0.65108 0.035532 -0.019213 -0.27887 -0.33225 -0.36047 -0.22633 -0.25374 -0.77721 -0.0043544 -0.45633 0.55937 0.72507 -0.38004 0.47421 -0.24219 0.76603 -0.43771 -0.5882 -0.55538 0.28059 -0.15106 0.11094 -0.49309 0.17757 0.27795 -0.45475 0.37283 -0.68685 -0.94578 -0.21916 -0.62923 -0.17656 0.41927 0.17782 -0.3571 0.61386 -0.36447 0.25542 0.52583 0.14649 -0.046602 -0.4401 -0.10071 0.023641 1.0143 -0.041425 0.26966 -0.40406 -0.0048689 -0.02987 0.21359 0.39357 -0.3936 -0.52698 0.57209 -0.85287 0.16255 0.63835 -0.72514 0.31763 -0.3424 -0.16201 0.37438 0.44116 -0.19972 -0.062085 -0.64971
ticket -0.031852 -0.27104 0.09251 0.27829 0.69847 0.85998 -0.65001 -0.072306 -0.27765 0.20778 0.29356 -0.26523 -0.10004 0.23379 0.077345 -0.65764 0.52701 -0.082721 -0.12489 0.20237 -0.18514 0.001838 0.37989 -0.06125 -0.30385 0.055894 -0.011671 -0.10111 0.36197 0.074956 -0.29298 0.8667 -0.41929 -0.41778 0.18292 -0.45507 -0.34318 0.43755 0.032726 0.4156 -0.19962 0.27933 0.30545 0.15191 0.32874 0.48617 0.19117 0.13601 0.15034 -0.52747 -0.47189 -0.17569 -0.10763 0.22938 -0.17882 -0.39044 -0.035943 -0.38799 -0.33316 0.47499 0.3488 -0.60696 -0.59105 0.70362 0.22938 -0.87766 0.37758 0.33106 0.14512 0.031504 1.5492 0.65941 -0.5819 -0.47803 -0.50286 0.28976 6.6212E-4 -0.14153 -0.13172 0.34273 -0.35803 -0.14438 -0.28463 -0.12023 -0.4127 -0.41845 -0.028247 1.0367 -0.72638 0.47733 0.12908 -0.040545 -0.044293 -0.62032 0.065785 0.20567 0.027125 0.17231 0.055618 0.15835
victory 0.028842 0.41473 0.387 0.46721 0.13649 0.4611 -0.15457 0.053401 -0.063293 -0.71907 0.64348 0.019941 -0.33342 -0.54939 0.38102 -0.30851 0.062973 -0.64907 0.23007 0.35469 0.092794 -0.0088168 0.48465 -0.012836 -0.34407 -0.47367 0.38252 0.15229 -0.096167 0.025603 0.05668 -0.03051 -0.16507 0.026145 0.23914 -0.35276 0.32447 0.15734 -0.37596 0.75159 -0.4337 0.56233 -0.16871 0.22125 0.28429 0.24554 0.45824 0.81741 0.32321 -0.86233 -0.099116 0.17711 -0.25558 -0.31939 0.10519 0.33087 0.068148 -0.18769 -0.05097 -0.13868 -0.35718 -0.24255 -0.93979 0.29399 -0.047098 -0.54394 -0.68784 0.1804 -0.013381 -0.48529 0.65847 0.684 0.22382 -0.39303 -0.35731 -0.17362 0.27997 0.63678 -0.55659 -0.3098 0.1413 0.0080066 -0.14127 0.27074 0.83706 -0.18996 0.34432 0.35887 -0.80613 0.44593 0.28808 0.19272 0.53936 -0.53131 -0.31414 -0.2876 0.43788 0.57706 0.18853 -0.093986
football 0.063277 0.40825 0.68655 0.45709 0.47438 0.46184 -0.69048 -0.19911 -0.034084 0.11091 0.43324 -0.25474 -0.47644 -0.49086 -0.45711 0.073153 0.66727 -0.53479 -0.038618 -0.043434 -0.29544 -0.020374 -0.069323 -0.16097 0.086525 -0.15726 -0.062418 -0.19882 -0.60417 -0.27976 -0.55521 0.22858 0.06868 -0.14491 -0.30437 0.15851 -0.2831 0.13344 0.56387 -0.26889 -0.41504 -0.0099529 -0.074052 -0.17281 0.7363 -0.36554 0.22052 0.15718 0.24692 0.34284 -0.76289 0.16647 -0.32883 0.4251 0.15705 0.15164 0.13653 -0.031031 -0.52294 0.1809 0.06252 -0.45501 -0.50263 0.29708 0.69399 0.067739 -0.81725 0.34849 -0.17022 -0.47779 0.87976 0.71123 0.015145 -0.12099 -0.15047 0.32143 0.64487 0.25666 0.34147 0.15295 -0.49385 0.042786 -0.2669 0.35234 0.083185 0.49622 0.1571 0.38032 -0.96198 0.22997 0.27931 0.24016 0.42492 -0.42303 0.21121 0.29577 0.51715 0.015102 -0.29952 0.12596
seepage 0.0161 -0.38513 -0.061463 -0.27434 0.070048 0.079486 -0.1437 0.33576 -0.019909 -0.054421 0.07782 -0.055727 -0.37725 -0.19728 0.12752 -0.29661 -0.1342 0.23921 0.010789 -0.40262 -0.19689 0.13732 0.044916 -0.15109 -0.47384 -0.58275 0.32681 0.054536 -0.42851 -0.1623 -0.1938 -0.068777 0.30919 0.1651 -0.058084 0.16983 -0.2946 0.15685 -0.066843 -0.39049 -0.49157 0.44859 -0.01706 0.43839 0.27215 -0.18079 0.66122 -0.1234 0.31611 -0.15125 -0.13303 -0.16214 -0.29977 0.057085 -0.19233 0.05886 -0.50693 -0.0099956 -0.1009 0.1852 0.13642 -0.53828 0.22145 -0.1496 0.18313 0.036587 -0.12866 0.11495 0.53448 -0.067025 0.33423 0.25951 0.42673 -0.38274 -0.51237 0.40898 0.12142 0.1839 0.28772 -0.038764 -0.14062 0.3101 -0.026444 -0.41506 0.065092 -0.33994 -0.28065 0.30235 -0.67216 -0.076908 0.40321 -0.23495 0.0022897 -0.28141 0.11518 -0.070256 0.15357 0.084815 0.18316 -0.11629
stroke -0.15628 -0.013021 0.068918 -0.59422 0.38933 0.35586 -0.55132 0.23429 0.19283 0.32781 0.36398 -0.074239 0.24266 -0.41554 -0.42177 0.14433 0.14079 -0.73932 0.64534 -0.26206 0.10953 -0.13235 -0.10533 0.10493 -0.64651 -0.54669 0.24391 0.062216 -0.082826 -0.40776 0.14017 0.15895 0.081392 -0.14512 0.15242 -0.031413 -0.31837 -0.11217 -0.88553 0.070397 0.17137 -0.11421 -0.39532 0.77101 0.14433 -0.034151 -0.019983 -0.36328 -0.06787 -0.17292 0.13449 -0.24262 0.48873 0.1365 0.23144 0.93227 -0.12814 -0.59359 -0.10153 -0.051904 -0.21034 -0.098037 -0.72077 -0.12438 0.14897 -0.13956 -0.35572 -0.20791 -0.22473 -0.19431 0.41457 -0.27816 0.50056 -0.26914 -0.42867 1.4198 -0.073966 1.2151 0.001643 -0.42244 0.010557 0.39255 -0.091439 -0.1035 0.48718 0.3469 0.30377 0.11226 -1.2982 0.13138 -0.091427 0.069714 0.73844 -1.0853 0.077024 0.42675 -0.27391 0.66557 1.0408 -0.51463
environment 0.47784 -0.24592 -0.21802 -0.28075 0.18301 -0.16931 0.14439 -0.13611 0.10926 0.25511 -0.3067 0.22823 -0.021321 -0.48162 0.46389 -0.39381 -0.13762 0.1834 0.044379 0.10163 -0.26786 0.28702 0.076076 -0.13242 -0.93138 -0.10279 0.27004 -0.21243 -0.31524 -0.23462 -0.77249 -0.53605 0.10967 -0.16846 0.12689 -0.24936 -0.27516 0.49552 0.031373 0.26113 -0.2414 0.058496 -0.44361 0.48456 0.35786 -0.26689 0.44073 -0.20249 0.60722 -0.094641 -0.214 -0.32887 -0.39276 -0.12457 -0.60706 0.2501 0.057018 0.43442 -0.20634 0.33539 0.060766 -0.036205 0.11766 0.34621 0.48879 0.16899 -0.25633 0.38877 -0.23552 0.26655 0.50434 0.60394 0.2655 0.1474 -0.53005 0.39107 0.23061 0.17838 -0.28144 -0.24499 -0.35988 0.28979 0.37225 0.097076 0.35996 0.20821 0.1214 0.9294 -0.26114 0.021185 0.17848 -0.089506 0.40913 -0.45434 -0.14846 0.41369 0.22882 -0.18563 -0.13473 -0.24158
coffee -0.35008 -0.83024 -0.34575 -0.61717 0.31089 0.088055 -0.8306 -0.12751 0.37342 0.43753 0.38993 -0.1632 -0.3091 0.46711 0.21334 -0.3862 -0.073947 0.23835 0.19147 -0.13778 -0.56871 -0.24718 0.061977 0.19147 -0.87025 -0.50919 -0.50165 -0.41402 -0.68861 -0.24481 -0.48408 -0.27745 0.32205 -0.18734 -0.27138 0.013686 -0.85775 0.26261 0.10952 0.29671 -0.54616 0.43231 -0.427 -0.1901 0.42822 -0.14898 -0.076356 0.31058 0.13738 0.013658 0.084696 -0.64265 -0.35 0.2579 -0.1288 -0.031022 -0.1565 -0.32168 -0.30309 -0.17899 0.19618 -0.74392 -0.55594 -0.036961 0.067793 0.26307 -0.43682 -0.51559 0.089567 -0.47434 0.58699 0.714 0.31182 -0.20109 0.01539 0.12385 0.12511 0.31367 0.48207 0.122 -0.39119 -0.074513 0.0055864 0.024229 -0.22252 -0.37689 0.32495 0.11334 -0.84888 0.44588 0.41015 0.077731 0.34969 -0.34587 0.10084 -0.0098889 -0.26293 0.097112 0.24911 -0.18424
baby 0.20951 -0.4531 -0.42551 -0.22308 0.30221 0.32692 -0.58002 0.36635 0.31489 0.4643 0.14403 -0.80241 -0.57447 -0.39395 0.12683 0.032612 0.047595 -0.37055 0.30067 -0.75101 -0.12374 0.43233 0.68795 -0.60871 -0.92987 -0.77395 -0.34024 -0.47223 -0.53709 -0.37145 0.18418 -0.29378 0.20369 -0.073259 0.15002 0.55738 -0.14318 0.33239 -0.39531 -0.15798 -0.31095 -0.1138 -0.14046 -0.10736 -0.30526 -0.12783 -0.099522 -0.094688 0.14395 -0.20731 0.32015 0.17673 0.10592 -0.40604 -0.51383 0.2418 -0.27772 0.12948 -0.20569 -0.15153 0.065834 -0.64164 -0.23183 0.20624 -0.25888 0.0078912 -0.25068 0.15077 -0.14609 0.15292 0.72933 0.4469 -0.2412 -0.9766 0.18086 0.42752 0.083692 0.56402 0.45858 -0.33815 -0.18679 0.39887 0.12326 -0.26204 0.51587 0.18745 0.098009 0.45381 -0.5927 0.008915 0.74296 -0.16324 0.29915 -0.064191 -0.0057575 0.21503 -0.18828 -0.92365 0.058592 -0.11019
personnel 0.60231 -0.2765 -0.024572 -0.21657 0.54805 0.59067 -0.03995 -0.24951 -0.12472 0.4784 0.60999 -0.31832 0.055321 -0.33653 0.2578 0.2709 0.12657 -0.45434 0.08287 0.44849 0.086178 0.81779 -0.24952 -0.27188 -0.070012 -0.249 -0.094138 0.087621 -0.16192 -0.18439 -0.37943 -0.023713 0.63259 -0.22041 0.59825 0.19354 -0.86646 0.22901 -0.33429 0.3434 -0.33912 0.51296 -0.21276 -0.11019 0.48354 0.3453 0.21034 -0.25774 0.12076 -0.052597 -0.21376 0.025849 -0.80287 -0.11569 0.106 0.29948 -0.30498 -0.084711 -0.56609 0.75306 -0.18776 -0.66418 -0.019013 0.14539 0.4432 0.16541 0.13188 0.66456 0.50116 -0.085768 0.33723 0.37969 -0.0098419 -0.080829 -0.13269 -0.10215 0.077985 0.14491 0.0067091 0.13353 0.06083 0.24235 0.025134 -0.20018 0.38407 0.15891 -0.57572 0.19881 -0.52898 0.17374 -0.16182 -0.27539 0.54639 -0.33972 -0.054317 0.11285 0.79584 -0.15019 0.19833 0.23116
family 0.095506 -0.5953 0.32806 -0.043425 0.3083 0.38624 -0.32261 0.091824 0.24631 0.051301 -0.24492 -0.34028 -0.40323 -0.12874 0.41509 0.13723 0.02124 -0.24696 0.38145 -0.51933 0.085464 0.33523 0.53495 -0.63443 -0.28587 -0.36642 -0.039845 -0.10354 -0.46018 -0.10918 0.045585 -0.51265 0.075828 -0.11339 0.26887 0.22459 -0.56532 0.46566 -0.30211 -0.07653 -0.28298 -0.14412 -0.26338 -0.036526 0.33578 -0.14354 0.16881 0.25486 0.15079 -0.28448 -0.27414 -0.21762 -0.07008 -0.12012 0.024577 0.021628 0.36236 -0.22276 -0.5409 -0.060241 0.015867 -0.24076 0.025697 0.010325 -0.0083112 0.00402 -0.74901 0.33742 0.28671 0.068737 0.8688 0.4127 -0.23871 -0.35937 0.36864 0.21356 0.10381 0.19376 0.071281 -0.062293 -0.34734 -0.077322 0.38832 -0.058062 0.22453 0.012729 -0.2128 0.43447 -0.78885 -0.15938 -0.08019 -0.42635 0.24697 -0.35212 0.35089 0.13969 0.21983 0.0096147 0.16923 0.11512
hypertension -0.09126 -0.025822 -0.18794 -0.41904 0.81646 0.050008 -0.4813 0.12815 -0.11961 0.42165 0.20698 -0.041626 -0.28875 -0.36461 -0.37101 -0.22924 -0.065321 -0.41215 0.34882 -0.19874 0.1964 0.33228 -0.3483 0.0025256 -0.87685 -0.88318 0.24323 -0.085799 -0.40343 -0.11452 -0.36322 -0.21276 0.19795 0.068851 0.19467 0.16278 -0.42867 0.46325 -0.50876 0.37932 -0.54445 -0.43718 -0.64822 0.45409 -0.18279 -0.058614 0.33509 -0.19562 0.29101 0.1834 -0.45107 0.35297 -0.087407 0.27631 -0.38148 0.22281 -0.32993 -0.44455 0.053682 -0.034599 0.16026 -1.1075 -0.095378 -0.26465 0.24643 -0.12297 0.11902 -0.020521 0.057762 0.1081 -0.3676 -0.32564 -0.0083241 -0.59108 -0.14424 0.86313 -0.25047 0.62478 0.26754 -0.15868 -0.21362 0.10126 -0.081177 0.014628 0.43346 0.056313 -0.06541 0.51095 -1.077 0.22426 -0.071762 -0.17994 0.7754 -1.0112 0.34569 0.36446 -0.062903 -0.029313 0.31622 0.045597
president -0.079747 -0.32442 0.54531 0.30015 0.55423 0.21405 -0.46615 0.17885 0.037401 -0.10272 0.45485 -0.13244 -0.020513 -0.043048 0.39054 -0.50847 0.26865 -0.039627 0.16083 -0.36475 0.18906 0.082831 0.070325 -0.28226 0.027792 -0.34164 -0.76161 0.2015 -0.25112 -0.21906 -0.15937 -0.38394 -0.11177 -0.4202 0.15819 -0.04872 -0.36983 0.24449 -0.33886 0.37018 -0.52493 0.16251 -0.19556 -0.21082 0.45208 -0.1193 0.036423 0.22979 0.64492 -0.5809 -0.43475 0.14845 -0.54341 -0.032158 -0.39063 0.41863 0.41798 0.32996 -0.44303 0.21204 -0.14794 -0.098596 -0.6074 0.40044 0.58042 0.38636 -0.035796 0.80727 -0.11673 0.28396 0.24357 0.48476 0.51325 -0.49248 -0.1134 0.59499 -0.16087 -0.14633 0.13455 -0.17623 0.14403 0.27307 -0.29626 0.31833 0.076031 0.053432 -0.002191 0.37292 -0.68527 -0.075452 -0.23979 -0.47403 0.48493 -0.10535 0.09134 0.197 -0.22767 0.23627 0.34939 -0.22325
atmosphere -0.10135 -0.028632 0.72468 -0.18212 0.36615 0.1728 -0.056248 0.28995 0.25494 0.29305 -0.0063007 -0.092547 -0.18 -0.024963 -0.055702 -0.39921 0.15545 0.35302 -0.12746 -0.036276 -0.75339 -0.039929 -0.23841 0.10627 -1.2538 -0.38009 0.85231 -0.12282 -0.042824 -0.61258 -0.85553 -0.064007 0.35119 -0.44408 0.13123 0.26386 -0.67493 0.15226 0.1806 0.20919 0.41928 0.47601 0.062069 0.62752 0.29599 -0.59104 0.66615 0.14267 1.1779 0.018014 -0.64603 -0.1079 -0.15707 -0.22725 -0.18348 -0.3095 0.11777 0.040603 0.14917 0.18896 -0.25432 -0.15518 -0.18158 0.044287 0.3576 -0.27532 -0.21475 -0.25535 0.2638 0.036794 0.55331 0.56788 0.39362 -0.075292 -0.21298 0.47889 0.13338 0.15587 -0.24699 -0.3661 0.30067 0.23783 -0.18525 0.19993 0.24041 -0.044818 -0.40708 0.70508 -0.74816 0.41382 0.13621 0.30452 0.045075 -0.21555 -0.079722 0.1216 0.0097906 -0.27038 -0.20571 -0.062136
practice 0.17661 0.25572 -0.073635 0.58879 0.16403 0.50334 -0.4274 -0.2193 0.027189 0.053877 0.26707 0.24494 -0.38605 -0.17875 0.20144 -0.060435 -0.61351 -0.25542 0.23621 0.27981 0.29146 0.069316 0.18827 -0.18083 -0.10693 -0.52912 0.090996 0.10846 0.011936 0.62575 -0.48228 -0.31171 0.65336 -0.31321 0.28229 0.09348 -0.21876 0.38951 -0.0062014 0.39102 -0.37026 0.10271 -0.47403 0.14511 0.25134 -0.0068437 0.39164 -0.51645 0.17026 -0.18358 -0.36177 0.16707 -0.64658 -0.032812 -0.14481 0.16357 0.12255 0.37791 0.022899 0.34627 -0.19545 -0.084774 0.19671 -0.1699 0.25458 0.1274 -0.43856 -0.28473 0.35351 -0.21536 0.6925 0.31912 0.083222 0.042008 -0.4678 0.3154 -0.2101 0.84471 0.21172 0.093965 -0.26631 0.084642 -0.03408 0.044808 0.09984 0.37085 0.038295 0.13967 -0.53595 -0.32054 0.05669 0.12172 0.97418 -0.3095 0.29057 0.42064 -0.096889 -0.16989 0.2285 -0.18323
movie -0.095205 -0.51456 0.15613 -0.26714 0.16362 0.24842 -0.40386 -0.05397 -0.32004 0.087566 -0.015394 -0.29891 -0.013666 -0.43887 -0.15193 -0.47448 -0.22445 -0.43635 -0.028553 -0.57804 -0.083759 0.33839 0.50884 -0.1036 -0.56193 0.14467 0.34876 -0.52601 -0.49903 -0.31395 0.12021 -0.20817 0.50974 -0.23297 -0.28291 -0.097671 -0.86387 0.19417 -0.10282 -0.65995 -0.5909 0.2824 0.080527 0.18689 0.23722 -0.26338 0.48144 0.18642 -0.04741 0.038607 -0.61541 -0.92622 0.27337 0.47146 0.22156 -0.016702 -0.096515 -0.23888 0.032623 0.74769 0.14548 -0.19634 -0.42163 0.41364 0.033207 -0.50445 0.15332 0.51329 0.099484 -0.050712 0.99486 0.87477 -0.25737 -0.59038 -0.39301 0.44845 0.18664 -0.15917 0.49137 0.01903 0.58563 -0.41637 -0.34184 0.53848 0.1515 -0.32149 0.0082166 0.24237 -0.75095 -0.34064 0.11884 -0.12566 0.12537 -0.61777 0.23039 0.25607 -0.31232 0.079725 -0.2136 -0.014951
popcorn -0.17989 -0.49007 -0.32314 -0.38075 0.21649 0.22382 -0.71071 -0.12006 0.26964 0.27614 0.13389 -0.28248 -0.43142 0.021788 0.038761 -0.63966 -0.013442 -0.027419 0.24369 -0.42358 -0.20806 -0.22542 0.20286 -0.10398 -0.72343 -0.26133 -0.067289 -0.59866 -0.029848 -0.66931 -0.086603 0.038174 0.59651 -0.097408 -0.021542 0.2145 -0.94175 0.61845 -0.28801 -0.12783 -0.38896 0.22253 -0.35783 0.0092106 0.42512 0.092299 0.51425 0.037194 0.38796 0.12274 -0.34442 -0.62016 -0.27972 0.54268 0.15229 0.071562 0.010723 -0.51253 0.47686 -0.23245 0.26663 -0.93742 -0.24781 0.061011 -0.18206 -0.16256 -0.13474 0.34125 -0.21432 -0.3448 0.67173 0.41826 -0.059325 -0.68692 -0.44293 0.30857 0.038007 0.48271 0.61023 0.035946 -0.17259 -0.4617 -0.055358 -0.023451 0.016297 -0.48399 0.45469 0.51994 -0.57941 0.32269 0.43588 0.29865 0.14791 -0.2115 0.068954 -0.026944 -0.29442 -0.58652 -0.31926 0.04409
recommendation 0.026824 -0.20881 0.026004 -0.037214 0.82652 0.3647 0.2413 -0.47599 -0.096582 0.10001 0.65049 -0.31536 -0.18681 0.20618 0.36042 -0.041335 0.024218 -0.34272 0.49445 -0.1291 0.25787 -0.16413 0.24443 0.27822 -0.33323 -0.43493 -0.12145 -0.044688 -0.25227 0.42373 -0.40361 -0.37447 0.40595 0.20074 0.33145 -0.019631 -0.71975 0.12002 -0.21685 0.0085456 -0.54838 -0.021686 -0.335 -0.135 -0.032096 -0.097952 0.27688 -0.22198 0.29316 -0.63295 -0.020188 -0.23221 -0.36459 -0.019505 -0.26374 0.24928 -0.18767 0.19817 -0.39911 0.040545 0.075719 -0.54676 0.5804 -1.6542E-4 0.26286 0.26052 0.17634 0.557 0.071236 0.042913 0.10948 0.56416 0.39082 -0.48988 -0.44693 0.09993 -0.13607 0.2909 -0.4231 -0.096018 0.060995 0.57138 -0.12477 -0.30885 -0.10796 -0.12737 -0.0026177 0.50316 -0.3831 -0.032284 -0.71546 -0.0014124 0.41801 -1.1689 -0.075317 0.59218 -0.25337 -0.3773 -0.27008 -0.4666
focus 0.11365 0.075121 0.17744 0.090594 0.13324 -0.093894 -0.12822 0.29463 0.095922 -0.19947 0.39746 0.021604 -0.32405 -0.020531 0.2881 -0.36165 -0.30593 0.059633 0.15824 -0.12413 0.18538 0.24491 -0.15383 -0.036848 -0.46489 -0.5108 0.052464 -0.21083 -0.59209 -0.23473 -0.29555 -0.068287 0.13051 -0.046733 0.62062 -0.16286 -0.33181 0.20554 -0.093741 0.57527 -0.48515 0.11389 -0.48332 0.091072 0.15351 -0.1791 0.57072 -0.0072896 -0.02602 -0.042307 -0.30574 -0.23479 -0.33812 -0.048119 -0.26088 0.33273 -0.20974 0.27644 -0.20981 0.52905 0.078326 -0.10768 0.27524 0.39937 0.014871 0.22654 -0.27305 0.27986 0.13146 0.19665 0.30679 0.94157 0.046508 -0.17256 -0.24503 0.36654 -0.10557 0.41244 -0.44656 -0.47716 -0.42281 0.2804 0.04606 -0.01836 -0.18416 0.21723 0.20972 0.14729 -0.30906 -0.16669 0.056607 -0.27719 0.41971 -0.49857 0.37265 0.40572 -4.1973E-4 0.0047917 -0.024939 -0.079627
attempt 0.15396 0.46104 -0.14262 -0.20825 -0.41595 0.32658 -0.027759 0.27922 0.090766 0.27077 0.58772 -0.0073017 -0.34316 -0.34017 0.41128 -0.36706 0.13285 -0.13262 0.32418 0.15926 0.23187 0.39457 0.097977 -0.52924 -0.24298 -0.45211 0.2387 -0.074868 -0.20137 0.3263 0.035798 0.10087 0.044217 -0.31066 -0.06029 -0.053325 -0.2396 -0.13021 0.28848 0.24129 0.29716 0.50506 0.11039 0.551 0.55771 -0.26662 0.17825 -0.010518 0.10051 -0.45459 -0.3873 0.23239 0.092361 0.062672 -0.1334 0.48898 0.28563 -0.44708 -0.4791 0.43456 -0.35398 -0.23448 -0.15688 -0.012376 0.38739 -0.087667 -0.37024 0.11761 0.16603 0.19406 0.26421 0.57405 0.32481 -0.70523 -0.48132 0.058622 0.13196 0.22223 -0.08179 -0.03694 0.12542 0.71806 -0.087451 0.020967 -0.25808 -0.45612 0.096773 0.08327 -0.6813 0.1435 0.090957 -0.048476 0.28829 -0.47145 -0.18527 0.80431 -0.14061 0.057338 0.02733 -0.3529
approach -0.20182 0.31297 -0.20637 0.030817 0.10134 0.17739 0.054578 -0.064171 0.11459 -0.035988 0.10158 0.17896 -0.058215 -0.18625 0.26413 -0.40824 -0.42398 -0.186 0.39746 0.26375 0.28664 0.14509 -0.034136 0.073321 -0.44391 -0.28757 0.21387 -0.188 -0.026824 -0.077477 -0.62673 -0.1216 0.37807 -0.39319 0.35729 -0.091532 -0.37053 0.034884 0.10467 0.5249 -0.50713 -0.15323 -0.32896 0.21059 -0.11806 -0.19228 0.45353 -0.020255 0.32768 -0.14423 -0.44897 -0.12135 -0.09825 0.10836 -0.43455 0.0026515 -0.063197 0.10273 -0.29193 0.31731 -0.33064 -0.30917 -0.030814 0.062852 -0.15124 0.20608 -0.41125 0.26066 -0.22259 0.24377 0.3267 1.0136 0.41012 -0.22187 -0.42758 0.33046 -0.076727 0.36959 -0.25595 -0.1144 0.072561 0.53152 -0.08392 -0.099231 -0.010908 0.12131 0.086305 0.024118 -0.60672 -0.21822 -0.25574 -0.17962 0.32892 -0.6146 0.12998 0.63112 -0.15879 0.043065 0.56647 -0.27107
number -0.11526 -0.2871 -0.1589 -0.13653 0.28473 0.32093 0.10516 0.31379 -0.30987 0.15076 0.48824 0.12814 0.11963 0.048941 -0.26625 -0.17971 0.20532 -0.22504 -0.037528 -0.037692 0.19833 0.35504 0.010406 -0.10309 -0.31594 -0.35971 -0.058492 0.37462 0.19626 -0.0054823 -0.52345 0.068695 0.25939 -0.2164 0.21332 0.30351 -0.2132 0.31983 -0.13218 0.71221 0.010568 0.57393 -0.32913 0.60582 0.30443 0.089404 0.27899 -0.011092 -0.16951 -0.0835 0.070709 -0.3954 0.23767 -0.050061 0.021479 0.12023 -0.52002 -0.33382 -0.64307 -0.0023029 -0.20625 -0.52187 -0.10231 0.075316 0.32811 -0.034831 0.15659 0.62986 0.33531 0.10144 0.58171 0.23032 0.19201 -0.098629 -0.43602 0.15907 -0.048438 0.61153 0.16791 -0.20685 -0.5402 0.43277 0.12879 -0.046877 0.25527 -0.094894 0.090294 0.28437 -0.30883 -0.28483 -0.24482 -0.23715 0.66618 -0.46558 -0.021719 -0.021182 0.074239 -0.07366 -0.3047 0.21247
property 0.24641 -0.7898 -0.47324 0.21544 -0.058807 0.011316 -0.093247 -0.51498 0.0050274 0.46677 0.087812 0.28446 -0.11649 -0.22821 0.30277 0.12701 0.21594 0.096166 -0.12443 -0.62432 -0.2073 0.3239 -0.31559 -0.5552 0.14372 -0.20196 0.3186 -0.0043167 -0.11964 0.23788 -0.69662 -0.60595 -0.06885 -0.20293 -0.045595 -0.043133 -0.066183 0.027861 0.10662 0.36739 -0.17059 0.30356 -0.49174 0.27625 1.1256 0.47105 0.51944 -0.0076953 0.099736 -0.17277 -0.073925 -0.027414 0.2081 -0.3056 -0.19705 -0.016294 -0.30523 0.21091 -0.2967 0.20435 0.06902 -0.11452 0.13682 0.24126 0.38521 -0.077601 -0.58697 0.44135 0.094496 -0.093086 1.2202 0.28721 -0.36509 -0.53691 -0.21213 0.54983 0.2005 -0.16358 -0.15556 -0.10197 -0.62356 -0.22114 0.36483 -0.099393 0.2402 -0.1769 -0.45106 0.72563 -0.88386 0.050309 -0.056292 -0.11556 -0.36361 -0.5467 0.34936 -0.14286 0.038668 -0.13071 0.66714 0.14369
fingerprint 0.20326 -0.20032 0.028394 0.2621 0.64064 0.25101 0.21673 -0.54956 -0.010961 -0.20184 0.54715 -0.15517 -0.57984 -0.51528 0.14685 -0.043969 -0.60469 0.55218 0.12901 -0.25421 0.33988 0.20924 0.47884 -0.22695 -0.5557 -0.50992 -0.22931 0.22438 0.053617 -0.099438 -0.26579 0.18528 0.28777 0.012342 -0.3323 -0.10684 0.2618 -0.22667 -0.50062 0.16281 -0.56103 0.20885 -0.09396 0.45583 0.40955 -0.050089 0.60982 -0.30986 -0.34899 -0.08753 0.29528 0.014611 0.15523 0.072194 -0.13817 -0.24447 -0.11723 -0.25589 -0.31922 0.61248 -0.25792 -0.57294 0.36262 -0.22698 0.53575 0.12744 -0.14685 0.58645 0.89862 -0.21234 0.68228 0.31603 0.29401 -0.65156 -0.076384 0.72287 0.059954 -0.26031 0.11739 -0.28954 -0.1609 0.32423 0.12051 -0.64692 -0.013048 -0.20391 0.40618 0.14147 -0.64331 0.053039 0.37359 -0.0034921 0.96939 -0.22185 -0.16804 0.27045 -0.0064398 -0.41459 0.16144 0.47522
reservation 0.18976 -0.22589 -0.17797 -0.36318 0.17316 0.46624 0.076965 -0.34216 0.04705 0.012179 -0.12417 -0.010483 -0.038875 -0.027589 0.28625 -0.096716 0.21591 0.31653 0.27594 -0.11131 -0.099537 0.054482 -0.017646 0.012819 -0.067406 -0.45321 0.013857 0.027158 -0.14158 0.29867 -0.18286 -0.14175 0.3714 -0.14252 -0.15377 0.0034839 -0.47897 0.37916 0.024009 0.29808 -0.25286 0.026969 0.061101 0.19045 0.40502 -0.23628 0.64105 -0.099024 0.23063 -0.61692 -0.23423 -0.081215 -0.12443 -0.028024 -0.4835 0.12525 -0.26244 -0.53481 -0.45794 0.26209 0.35635 -0.53649 -0.091269 0.081046 0.084325 -0.064717 -0.030878 0.20129 -0.010422 0.26025 0.89693 0.23708 -0.10084 -0.33828 -0.3054 0.06513 0.0331 0.37986 0.11584 -0.07059 -0.10495 0.40604 0.13482 -0.17346 0.25078 0.046769 -0.021686 0.86088 -0.79749 0.25911 -0.50827 0.11619 0.0090666 -0.27952 0.39951 0.20319 0.35489 -0.01379 0.094121 0.37761
block -0.33475 -0.3295 -0.020748 -0.039915 -0.2121 0.25474 0.19872 -0.04837 0.35206 0.23689 0.45672 0.23395 0.0093002 0.13796 -0.041208 -0.0072153 -0.54044 -0.22255 0.13602 -0.18526 0.037309 0.47697 -0.50168 -0.3493 -0.055322 -0.17355 0.059873 0.38945 -0.5254 0.014284 -0.10831 -0.063163 0.34285 -0.016508 -0.3283 -0.053997 -0.21032 0.1823 -0.1045 0.53052 -0.55333 0.30886 -0.26735 0.24908 0.55989 -0.44801 0.43681 0.3966 -0.26943 -0.42179 -0.056118 0.22139 -0.0099738 0.19915 -0.43635 0.50798 -0.065258 -0.16634 -0.28453 0.015296 -0.3417 -0.46788 -0.090377 -0.1493 -0.38828 -0.32561 -0.44545 0.41962 0.29162 -0.043791 0.45183 0.47621 0.30171 -0.80137 -0.45199 0.25457 0.56541 0.16336 0.47976 0.084893 -0.041882 0.31631 -0.45706 -0.43056 0.16724 -0.30837 0.031328 0.43861 -0.35461 0.25703 0.15224 0.36944 -0.17969 -0.43454 0.19977 0.16162 -0.083544 -0.12243 0.43174 -0.048784
fear 0.34006 -0.091877 -0.19849 0.033763 -0.082761 0.0089471 -0.08614 0.56283 -0.18768 0.28811 0.16702 0.05907 -0.65455 -0.39278 -0.081996 0.0075358 0.22041 -0.23742 0.062421 -0.0071153 0.033086 -0.10168 0.23583 -0.27317 -0.71333 -0.41398 0.59106 0.064383 -0.48075 0.14965 -0.16145 -0.34753 0.21591 -0.62675 -0.28122 -0.14977 -0.48593 0.20856 -0.45404 0.29862 -0.17431 0.17919 -0.25371 0.41965 0.33921 -0.0076302 0.68777 0.0509 0.047181 0.001221 -0.51075 0.075453 0.072027 0.11933 -0.26514 0.10163 -0.028384 0.07606 -0.64366 0.16852 -0.49347 -0.57583 -0.1973 -0.024229 0.30598 -0.18121 -0.23059 0.074053 0.5143 0.46714 0.29479 0.54884 0.035604 -0.57884 -0.09181 0.67793 0.20909 0.19072 -0.092307 0.013543 0.020468 0.26004 0.14168 0.020091 -0.073532 -0.16482 -0.059548 0.41776 -0.27759 -0.046449 0.026815 -0.39842 0.23478 -0.18879 0.48666 -0.13705 0.34829 -0.44157 -0.0088143 -0.39365
surface -0.22801 0.043141 -0.28629 -0.013266 0.3456 0.3123 -0.4189 0.20695 0.44052 0.24151 0.16912 0.043095 -0.31213 -0.069855 -0.08469 -0.10385 -0.066321 0.17136 0.1589 -0.64496 -0.16505 0.23836 -0.3763 -0.27997 -0.67818 -0.52369 0.60674 0.17409 0.17834 -0.6349 -0.43219 0.23195 0.049596 -0.087796 0.33415 0.14647 -0.0346 -0.15904 -0.2936 0.086905 -0.10165 0.61623 0.1643 0.54613 0.041735 -0.47282 1.208 -0.16152 0.82521 0.074024 -0.042354 0.082145 -0.15742 -0.067614 0.0093091 -0.012091 -0.5169 0.013895 0.32081 0.033847 0.19233 -0.63779 0.42593 -0.32292 0.22642 -0.048428 -0.27936 -0.050231 0.087447 -0.11059 0.3664 0.53309 0.84157 -0.076186 -0.37273 0.51927 0.59334 0.2841 -0.034146 -0.62296 0.11189 0.28192 -0.13339 -0.30012 0.36345 0.17076 -0.10178 0.38489 -0.87148 0.11521 0.16191 -0.14237 -0.016533 -0.22072 0.053845 0.15502 0.58145 -0.17028 0.036118 0.091504
issue 0.16981 0.18076 0.13644 0.11982 0.47269 0.18759 0.129 0.13479 -0.27365 0.19065 0.21742 0.69299 -0.58114 -0.059343 0.17664 -0.18031 -0.0023206 0.13746 0.19287 -0.62794 0.1602 -0.16813 0.10673 -0.22908 -0.33964 -0.36408 0.16368 -0.016958 -0.56241 0.16003 -0.53273 -0.023708 0.17113 -0.22238 0.30642 0.21633 -0.16172 -0.11144 -0.37747 0.18379 -0.32555 0.30295 -0.42095 0.47838 0.22051 -0.32833 0.63057 0.19375 -0.057863 -0.13833 -0.26617 0.39825 -0.32177 0.38289 -0.46343 0.14402 -0.13426 0.17039 -0.42315 0.31655 -0.011856 -0.29692 0.2053 0.27378 0.11848 0.13666 -0.06864 0.32403 0.14988 0.39942 0.51566 0.57731 0.03718 -0.40489 -0.13186 -0.016168 -0.45108 0.39674 -0.23199 -0.092476 -0.020822 0.5249 0.173 -0.030336 -0.31043 0.079379 0.38085 0.6754 -0.57895 -0.2371 -0.31649 -0.080279 0.2067 -0.68061 -0.20481 0.14017 -0.44262 0.015098 0.053221 -0.46248
